223 100
. -0.06154867 0.032697387 0.05394659 0.01990524 0.028091246 -0.21197668 0.051755473 0.2860192 -0.15573044 -0.088517755 -0.041030664 -0.16246226 -0.026695585 0.09917305 0.017844277 -0.05410981 0.0060548363 -0.114246905 -0.042951055 -0.28163847 0.0027853914 0.035925053 0.079475924 -0.06600819 -0.015864078 0.037851214 -0.06461292 -0.055965167 -0.1362321 0.033168428 0.078820735 0.035914 0.1014207 -0.10676452 -0.07388545 0.16663137 0.025732486 -0.080079064 -0.057471775 -0.16276608 0.018904062 -0.13773865 -0.09183725 0.030471923 0.10301157 -0.0130167585 -0.0853622 -0.014602611 0.09267469 0.086587094 0.050075933 -0.07750182 0.0592828 0.018820861 -0.04051172 0.08766025 0.009269366 -0.0022056808 -0.09341596 0.086315915 0.04847197 0.028624019 0.019290743 -0.034107454 -0.12233851 0.1073417 0.09481609 0.19133638 -0.14431164 0.18348873 -0.034046374 0.0929824 0.102792054 -0.08855907 0.20703298 0.09258218 0.04306462 0.0009875293 -0.11173555 0.0009466273 -0.05706481 0.060423095 -0.1413766 0.17274444 -0.08595136 -0.025480868 0.09321684 0.1169934 0.12657578 0.0002695041 0.19630629 0.12112755 0.039847855 0.03065255 0.19888061 0.10951951 0.076063424 -0.09029272 0.042464245 -0.0316568
이 -0.07678898 0.03797258 0.05518865 0.013430772 0.05995581 -0.21377108 0.041607685 0.28627414 -0.15386972 -0.0933561 -0.056648582 -0.1786517 -0.029399684 0.10223061 0.03298463 -0.03954525 0.012429806 -0.10449483 -0.034233693 -0.27025452 -0.006005584 0.019840442 0.08267708 -0.086416036 -0.017312296 0.0496694 -0.07262899 -0.060198806 -0.12875247 0.052872423 0.112433486 0.030409208 0.08511883 -0.10422562 -0.064985305 0.17868774 0.022108769 -0.059189346 -0.041717023 -0.14012545 0.051563744 -0.16160853 -0.09436311 0.040226255 0.10008407 0.0012566412 -0.061788354 -0.036257938 0.08839968 0.07369465 0.080152504 -0.10447743 0.06888164 0.022812847 -0.059024133 0.111720204 0.016864236 0.02089991 -0.090386905 0.08447391 0.036571246 0.034285024 0.018779475 -0.030203784 -0.11583171 0.11346921 0.11100299 0.17444265 -0.12967302 0.1937124 -0.051652774 0.06317267 0.11688833 -0.062184867 0.2021316 0.082370944 0.01831043 -0.002785195 -0.10042212 0.009766174 -0.073721446 0.06369294 -0.14526361 0.15212509 -0.07538386 -0.033466116 0.08400433 0.110495314 0.13989341 -0.019829737 0.19968699 0.12032311 0.038552653 0.0172637 0.1794415 0.10738721 0.10296123 -0.08259527 0.024994198 -0.035146922
영화 -0.059428975 0.038129326 0.028116036 3.6465506e-05 0.064079784 -0.18000956 0.029540079 0.27568135 -0.1672576 -0.06497503 -0.065777905 -0.1686589 0.0037589238 0.08966426 0.045722518 -0.06655874 0.013762771 -0.090020545 -0.047140334 -0.2748968 -0.026459685 0.01531944 0.05623825 -0.08842373 -0.009498663 0.03222151 -0.04163104 -0.05321885 -0.13803093 0.050251067 0.10669187 0.01757721 0.06489961 -0.0984356 -0.09108932 0.16599038 0.011111271 -0.060352962 -0.053435694 -0.15392566 0.023603743 -0.14201333 -0.07870581 0.056598518 0.11294201 -0.00019823073 -0.06644922 -0.03804056 0.073208645 0.066108406 0.068494186 -0.092252806 0.05023503 -0.0026965006 -0.07925883 0.08128672 -0.0041009085 -0.0014238311 -0.102450036 0.060315315 0.06166892 0.019189376 0.046960283 -0.016694633 -0.13626014 0.12609677 0.114417754 0.19373336 -0.1560275 0.19221856 -0.03405262 0.089364894 0.11643385 -0.067348704 0.19100592 0.112466745 0.05314141 0.012396018 -0.11305072 0.017056715 -0.05202434 0.03306629 -0.17159985 0.15866306 -0.07242593 -0.043379772 0.0701439 0.106509484 0.15196925 -0.011018587 0.18209568 0.13505891 0.056680787 0.02035764 0.20070618 0.11315402 0.10615532 -0.076135516 0.060951535 -0.06033513
의 -0.08231135 0.054063253 0.045969054 -0.00090791023 0.057507798 -0.2159053 0.046770334 0.29444876 -0.13632095 -0.10153894 -0.033941213 -0.15404333 -0.010492548 0.07621458 0.048742454 -0.05752601 0.022566717 -0.13230202 -0.04810328 -0.25385064 -0.0052520153 0.023252806 0.09143958 -0.045546867 -0.0542742 0.05167394 -0.048543207 -0.05953904 -0.121306166 0.04151318 0.097765304 0.028590854 0.06862681 -0.09982643 -0.06285711 0.19667399 0.03502906 -0.085725725 -0.08176786 -0.13329343 0.04756107 -0.1380584 -0.063562535 0.03368273 0.1248272 -0.0049437643 -0.06577336 -0.0393667 0.079156436 0.06471463 0.076672845 -0.08784325 0.04603665 -0.006791427 -0.073052146 0.09951532 0.0053207427 0.033064805 -0.075493656 0.061600737 0.05311336 0.041242015 0.04533357 -0.023680864 -0.112414874 0.09178584 0.09584922 0.20537749 -0.14866807 0.16074459 -0.03086826 0.06958172 0.105641216 -0.04973488 0.19963087 0.08283528 0.017944297 0.019046789 -0.12425802 0.022764118 -0.06871998 0.07136879 -0.14544977 0.17119873 -0.08272289 -0.03756802 0.107628375 0.14254935 0.13153419 -0.034899168 0.18101747 0.12234705 0.032336477 0.026010972 0.20963466 0.1024719 0.110320136 -0.097972296 0.035399325 -0.057737287
.. -0.07918722 0.033119388 0.027635021 -0.0034048737 0.05558763 -0.18559189 0.041373614 0.27733055 -0.15767975 -0.062994786 -0.071772516 -0.14997496 -0.04026541 0.09385559 0.01460572 -0.061858717 -0.007251072 -0.10208405 -0.011842588 -0.27797806 -0.007285721 0.0064048045 0.08680518 -0.044554144 -0.035944927 0.04597756 -0.060443256 -0.053057402 -0.14622529 0.041376714 0.110278465 0.043220237 0.08784425 -0.11752845 -0.04917697 0.15527852 0.0028474443 -0.06126215 -0.059448868 -0.14966515 0.042497028 -0.16477056 -0.10235133 0.0632458 0.12203444 -0.030792113 -0.062188964 -0.032662205 0.09630601 0.05036758 0.07494009 -0.074756384 0.09288654 0.005317306 -0.05950359 0.07661519 -0.023259383 -0.014341466 -0.08847788 0.05360619 0.06306307 0.01405689 0.032749265 -0.018386206 -0.12993696 0.10130813 0.121638365 0.20534189 -0.15203878 0.20280585 -0.05881988 0.09242409 0.09849261 -0.06388736 0.2080996 0.11047277 0.024710199 0.024515005 -0.088461645 -0.008696811 -0.07629407 0.034942593 -0.14393519 0.15564133 -0.09439016 -0.05010084 0.10403064 0.1313587 0.10810692 -0.024200773 0.20235522 0.10991393 0.048195 0.020154675 0.18994777 0.08092492 0.10937366 -0.06522965 0.04251487 -0.035400838
가 -0.08498417 0.036928315 0.040909052 -0.028493157 0.013532537 -0.19593313 0.05188241 0.2725652 -0.16215609 -0.10036547 -0.068718195 -0.16151607 -0.04130476 0.053384945 0.016646625 -0.077440776 -0.020369668 -0.12958139 -0.032129362 -0.25953528 -0.038113985 0.022748876 0.08972567 -0.041213185 -0.05203344 0.02939768 -0.048545524 -0.09446097 -0.11284573 0.059013844 0.10812597 0.007052631 0.06553392 -0.11525783 -0.06703311 0.19395812 0.028651133 -0.04940797 -0.03811054 -0.15659605 0.06756454 -0.1645686 -0.098266594 0.03128644 0.0978395 -0.021100523 -0.06877541 -0.007176841 0.07842478 0.061780185 0.07049808 -0.1087077 0.090060465 0.044610754 -0.08559129 0.10160775 0.032136127 -0.014961141 -0.10495321 0.042517822 0.07656677 0.024296394 0.054971036 -0.046180177 -0.10307305 0.10617881 0.094306946 0.18088366 -0.15855877 0.141112 -0.03414706 0.0924919 0.12884822 -0.050681178 0.18972085 0.11602488 -0.00012509797 0.012444334 -0.101434365 0.02923108 -0.0305894 0.03230295 -0.12816694 0.122515365 -0.07637056 -0.056650624 0.06311004 0.15167697 0.12200838 -0.0014834331 0.21484612 0.14467928 0.0068638814 0.019689037 0.20499766 0.11348379 0.08450074 -0.10207505 0.04919633 -0.06389835
... -0.03803967 0.020044774 0.04098158 0.0065049645 0.045196366 -0.19702797 0.055429526 0.2707147 -0.15601449 -0.08463174 -0.0382314 -0.15549882 -0.02134963 0.114385225 0.013905439 -0.05436667 0.026311021 -0.09737981 -0.023010321 -0.28802493 -0.0062905927 0.02040401 0.09339831 -0.06440071 -0.024623636 0.05035331 -0.067499116 -0.081040114 -0.12262862 0.034741882 0.11186735 0.061258435 0.083003104 -0.08540043 -0.086775415 0.1756386 -0.007221557 -0.09249184 -0.07284995 -0.178361 0.05650704 -0.16332947 -0.054480836 0.01872708 0.11188892 0.015522924 -0.09237216 -0.059111934 0.07291609 0.061977815 0.06390998 -0.10978635 0.043650173 0.025245873 -0.078391075 0.07138553 -0.0060617905 -0.013949849 -0.10640345 0.04684991 0.051348433 0.015450686 0.04470118 -0.016270803 -0.12894318 0.119762614 0.07945753 0.16760917 -0.1605603 0.16721107 -0.048451103 0.09490968 0.09810261 -0.058396127 0.21902323 0.070153914 0.042013634 0.019785363 -0.11542843 0.035760418 -0.03821263 0.03713172 -0.17030379 0.16717514 -0.08069156 -0.04753285 0.10866437 0.11177198 0.11509217 -0.01165379 0.18697472 0.12275977 0.024472067 0.029380174 0.17912018 0.102382705 0.11498283 -0.09297491 0.035297867 -0.028452652
도 -0.03729411 0.018557167 0.068405606 0.02454048 0.033358436 -0.19547461 0.04929039 0.25535858 -0.15956405 -0.09656759 -0.05624159 -0.15922223 -0.006875567 0.080360785 0.026240459 -0.044579983 0.013704266 -0.11402883 -0.04268177 -0.28482944 -0.009010306 0.044644482 0.06880243 -0.09089154 -0.0501586 0.060443576 -0.07141168 -0.048808284 -0.13934623 0.061632812 0.07488388 0.04457781 0.07929077 -0.10872218 -0.07839378 0.16478135 -0.004248753 -0.07048955 -0.07649423 -0.14308637 0.060745075 -0.15064998 -0.07842721 0.049057882 0.124947436 -0.027934756 -0.08782985 -0.04056095 0.10758005 0.069877535 0.040123675 -0.088574715 0.0911251 -0.0039319918 -0.06964063 0.119224645 -0.023102574 0.019675322 -0.08370537 0.08615312 0.07247394 0.02037011 0.015546329 0.0036169032 -0.111967176 0.11836771 0.068730295 0.20312797 -0.14133175 0.15953304 -0.034755386 0.07422125 0.11645178 -0.07710321 0.1852661 0.09654921 0.05270035 -0.011374121 -0.09806302 -0.0053904387 -0.07353007 0.05257818 -0.17295343 0.16538715 -0.070114195 -0.03580025 0.094454505 0.15055929 0.15318733 -0.016979808 0.19594975 0.108462326 0.011399072 0.0473422 0.1727312 0.097086236 0.08624944 -0.08809728 0.050970875 -0.05423404
을 -0.09724817 0.06541529 0.061892852 0.03841044 0.07101494 -0.18847506 0.076649904 0.2517413 -0.1713733 -0.06397361 -0.04011229 -0.18259484 0.018569132 0.07321764 0.06356034 -0.047280993 -0.024525395 -0.123366416 -0.05595551 -0.2735983 -0.0045810407 0.063410446 0.10297493 -0.0927891 -0.013816403 0.053176485 -0.07092376 -0.10139834 -0.11877368 0.0073804217 0.116017714 0.01548659 0.10562138 -0.05336444 -0.070112154 0.18706016 0.0035154023 -0.041193727 -0.041576568 -0.18612519 0.02709566 -0.13231905 -0.076466374 0.03417183 0.099079765 -0.019127939 -0.06900427 -0.015714595 0.06769639 0.054189935 0.06350246 -0.08406011 0.06602848 -0.0009073149 -0.039564464 0.08733338 0.008038831 0.013345843 -0.062864624 0.043790128 0.024353273 0.011439846 0.06230438 -0.025884712 -0.1561738 0.101032555 0.07813597 0.2044512 -0.1743612 0.18961573 -0.07883765 0.08240058 0.12742607 -0.043645997 0.16825761 0.068569206 0.0043947147 -0.030150358 -0.1427666 0.008356421 -0.058529556 0.028085439 -0.124265745 0.16516548 -0.052916083 -0.022929369 0.08619435 0.095688865 0.12360433 0.0055946084 0.17312127 0.12472163 0.04441378 0.024510335 0.21842057 0.13331246 0.10250027 -0.051597837 0.062896475 -0.065076895
에 -0.07658272 0.012441928 0.023294916 0.028006546 0.041168753 -0.22208795 0.028245278 0.28990927 -0.15639856 -0.091935545 -0.051142137 -0.17244828 -0.023973394 0.092474826 0.01812051 -0.027752288 0.011901856 -0.14582658 -0.009148841 -0.2872635 -0.0074053705 0.040588025 0.05262924 -0.07399824 -0.004480119 0.03198536 -0.08611738 -0.04059574 -0.13171689 0.026906366 0.119595915 0.049698748 0.09889126 -0.06644251 -0.09508799 0.18885848 0.017177003 -0.057821378 -0.053032074 -0.1414671 0.050727997 -0.13147615 -0.08745353 0.026956249 0.10322543 -0.004204262 -0.081068255 -0.015115414 0.0979846 0.09319254 0.072763406 -0.06475469 0.06470186 0.04171216 -0.04638341 0.07430719 -0.01083788 0.0023986942 -0.074547626 0.0690726 0.043055274 0.05121832 0.054282244 -0.026112793 -0.13572313 0.09059381 0.083096065 0.15581024 -0.13800077 0.1692869 -0.03813228 0.094873406 0.09536351 -0.10221903 0.20639828 0.073510244 0.037609745 -0.010342277 -0.08870859 0.019062893 -0.047169734 0.048964463 -0.15903193 0.18526646 -0.073766924 -0.0464561 0.060758907 0.13144849 0.15444092 0.004799305 0.17075117 0.14700608 0.046877 0.053374868 0.21184763 0.0813562 0.067595854 -0.06107442 0.06858535 -0.033409815
들 -0.04091736 0.026280697 0.06710781 -0.021240856 0.024792226 -0.21807522 0.027847871 0.28355062 -0.15619706 -0.10257442 -0.033361163 -0.17194743 0.0036530308 0.07462562 0.037127648 -0.03723775 0.0071029854 -0.123507015 -0.019208418 -0.28528792 -0.017309148 0.020263197 0.086037554 -0.076782934 -0.045066115 0.056425527 -0.064113505 -0.076474436 -0.10620325 0.049995817 0.08269262 0.040189423 0.109675236 -0.07251444 -0.053107128 0.18280244 0.016379442 -0.075138405 -0.07319183 -0.15498404 0.0308645 -0.14857009 -0.09341178 0.059792627 0.08627237 -0.03265243 -0.07940812 -0.03573152 0.06318462 0.07113219 0.05123495 -0.08880033 0.047774468 0.022726957 -0.04771124 0.09492317 -0.014062152 0.0048680855 -0.06859614 0.080030285 0.026968682 0.0197612 0.032493215 -0.0144834 -0.14572772 0.11602458 0.07357823 0.16259299 -0.13013376 0.1703167 -0.034602504 0.10145409 0.095582426 -0.04816074 0.20441213 0.119064815 0.04532267 -0.022308724 -0.115830235 0.03351763 -0.039921135 0.07957255 -0.13159792 0.18225573 -0.10152285 -0.018164005 0.06932859 0.13436462 0.14864683 0.00030556283 0.21300177 0.1250629 0.03070638 0.04531634 0.16587172 0.100996375 0.1176545 -0.09209404 0.05055443 -0.06457817
는 -0.02975792 0.055429786 0.046287704 0.018786049 0.047372364 -0.21304467 0.033687923 0.2810274 -0.1557535 -0.090389445 -0.03736639 -0.1472152 -0.023976283 0.0757729 0.043525662 -0.066216074 -0.009092769 -0.13146904 -0.040130284 -0.28154936 -0.023286033 0.0009414636 0.06834597 -0.09110635 -0.05754298 0.017093122 -0.081361696 -0.04534029 -0.10769678 0.0393517 0.08202411 0.013926779 0.08262598 -0.088650644 -0.067387685 0.16797823 0.012842135 -0.066647254 -0.07922954 -0.16786246 0.010405124 -0.1461306 -0.06743997 0.06059001 0.09399852 -0.019571656 -0.040922083 -0.030523775 0.07407623 0.092202954 0.07012638 -0.09912815 0.08458195 0.029720075 -0.074930064 0.09178578 0.0037700818 0.027138822 -0.09000554 0.058390725 0.054551862 0.029786877 0.028643524 -0.02863371 -0.13395414 0.12233111 0.11571431 0.20110074 -0.16079774 0.18110473 -0.054855496 0.10340984 0.111265615 -0.054968446 0.20091341 0.1099719 0.010556352 0.026592437 -0.11277247 0.00254923 -0.059753012 0.08455956 -0.16572884 0.14933573 -0.052346878 -0.02834566 0.06075748 0.10292671 0.15509373 0.008888295 0.20228195 0.10749129 0.00413591 0.040865175 0.19697791 0.080832206 0.06551791 -0.08523411 0.024333458 -0.04917722
, -0.06534139 0.017790329 0.06906249 -0.020062054 0.058421247 -0.1876284 0.03553818 0.29470173 -0.12269987 -0.094918564 -0.07085781 -0.17845836 -0.03889028 0.08124276 0.013886017 -0.07231217 0.0036869065 -0.10785461 -0.011080682 -0.27235147 -0.020924663 0.030748004 0.067302756 -0.047952432 -0.027649157 0.0624344 -0.082792066 -0.046476334 -0.13027655 0.062249776 0.075817466 0.041826826 0.08737973 -0.09369616 -0.08397184 0.14833862 -0.0074442746 -0.08962796 -0.05338806 -0.15303734 0.032270554 -0.12959239 -0.0833715 0.036110997 0.08161799 -0.037394684 -0.04865268 -0.047385927 0.06780719 0.082877785 0.08099885 -0.10370438 0.06914524 0.0022274225 -0.053012837 0.085484415 -0.008838303 0.01485748 -0.065885715 0.08738966 0.026391212 0.015201633 0.04582798 -0.015486744 -0.13164838 0.105486095 0.1206399 0.17929024 -0.16413906 0.18442068 -0.028681401 0.09436346 0.11531916 -0.087838784 0.20025635 0.09243952 0.041360054 -0.016566904 -0.12800048 0.017606245 -0.07683141 0.07072493 -0.1529194 0.18670157 -0.089627296 -0.030675951 0.102132864 0.11684817 0.120216414 -0.008493575 0.20100223 0.114927255 0.0505564 0.011647747 0.18972085 0.102410235 0.11586981 -0.06341158 0.05807182 -0.023085866
은 -0.094287984 0.06485629 0.017273003 -0.006784327 0.029158013 -0.2150694 0.010352849 0.24141951 -0.16124178 -0.08478801 -0.072224066 -0.1369813 -0.052391253 0.06797182 0.058699973 -0.025546215 0.029152311 -0.0994831 -0.025001809 -0.2818072 0.010848729 0.03686277 0.09421212 -0.044225123 -0.00015941956 0.07474401 -0.095965445 -0.09150724 -0.117378995 0.06340887 0.118716516 0.056359243 0.11078819 -0.11147291 -0.045044478 0.15654449 -0.021966362 -0.03670517 -0.052393027 -0.16250311 0.028449375 -0.16104756 -0.059935324 0.05464515 0.093082696 -0.037702736 -0.082963 -0.033241767 0.10419508 0.05791524 0.06503845 -0.08285258 0.042049512 0.02513956 -0.061489876 0.10576239 0.017130341 0.004823151 -0.09664161 0.09623547 0.06908774 0.051741213 0.042641863 0.010274607 -0.09214419 0.097752675 0.12692554 0.19511981 -0.11937048 0.172869 -0.050599266 0.061151825 0.07578528 -0.060756106 0.23067187 0.1222214 0.023262495 0.023615746 -0.09355115 0.0013189155 -0.04813815 0.036436185 -0.12028213 0.17681994 -0.06507836 -0.015738193 0.11248652 0.15115975 0.1287207 -0.036538206 0.22290315 0.14605552 0.0417462 0.026082048 0.15873961 0.08526971 0.12281222 -0.08838626 0.017557288 -0.0065451376
한 -0.03404824 0.063949265 0.050687745 -0.026160706 0.07677293 -0.21736255 0.060412783 0.29187837 -0.115913466 -0.115397766 -0.024157465 -0.19984972 -0.043701798 0.05810056 0.0075831595 -0.027230656 0.033599675 -0.13025677 -0.0141525585 -0.2811028 0.018879378 0.048924908 0.06699715 -0.08258801 -0.05463054 0.06095744 -0.058294475 -0.07735172 -0.098705344 0.025768122 0.06400009 0.029490305 0.086642876 -0.117755145 -0.090983525 0.14539616 0.0452405 -0.04325614 -0.059958775 -0.12972225 0.065718405 -0.15213884 -0.05610504 0.05413521 0.123618506 0.013424934 -0.08825324 -0.040613297 0.08938264 0.084808715 0.077631444 -0.07099427 0.08552864 -0.012857401 -0.06969042 0.073040865 0.035241906 0.026806619 -0.08861768 0.087145835 0.025008358 0.006678412 0.03778756 0.0013572656 -0.107640505 0.12605268 0.09081228 0.17300938 -0.14161953 0.17119835 -0.06471929 0.050468504 0.13207385 -0.077177584 0.1971107 0.06727462 0.06357403 0.0039789113 -0.102766775 0.02653515 -0.08359441 0.062892444 -0.14431971 0.13263574 -0.059547175 -0.021180136 0.11126326 0.14660104 0.12595436 -0.036601897 0.22307011 0.13117632 0.054059435 0.053886797 0.19158861 0.08148731 0.093951456 -0.050212983 0.020530697 -0.010994618
를 -0.078709126 0.042349596 0.052254044 0.024095446 0.030955812 -0.21068162 0.02065779 0.27697486 -0.15930979 -0.057023518 -0.06626503 -0.1862715 -0.03256492 0.10661942 0.008774874 -0.06626811 -0.020775778 -0.097205535 -0.016489167 -0.2537997 -0.018090922 0.04431311 0.047696922 -0.07309642 -0.04640283 0.041241452 -0.06679896 -0.04140271 -0.12110177 0.015273277 0.07689764 0.016307939 0.090322025 -0.06493264 -0.085829265 0.19224729 0.035116654 -0.088838175 -0.08195423 -0.12455514 0.060170855 -0.15746614 -0.095685475 0.06199382 0.11420256 0.009849378 -0.0915413 -0.05905379 0.08776634 0.03998419 0.049678873 -0.09579905 0.092917874 0.041522156 -0.06485382 0.11236108 0.023475064 0.0031392234 -0.058666684 0.08965131 0.05661781 0.018046554 0.011286554 -0.029240027 -0.09669531 0.084688984 0.086690985 0.20492063 -0.12835355 0.19440447 -0.06697484 0.074096955 0.12061565 -0.08481268 0.21864186 0.11911016 0.02835942 -0.0045752944 -0.10790315 -0.0006828283 -0.07872453 0.050227597 -0.15784562 0.17028543 -0.09380199 -0.013316076 0.06229668 0.10301811 0.15515359 0.015265251 0.18135917 0.13022861 0.016991572 0.005062773 0.162738 0.11924117 0.11064786 -0.049956538 0.06149714 -0.023985825
정말 -0.051332057 -0.009830695 0.06041346 0.0021813526 0.068103306 -0.18113238 0.025193622 0.28524324 -0.13157569 -0.075752474 -0.06990019 -0.18423384 -0.04878406 0.11599607 -0.010171509 -0.011896794 -0.036243554 -0.109945476 -0.033149406 -0.28495616 0.023923088 0.053472225 0.074604414 -0.043411456 -0.026407085 0.07866562 -0.03253619 -0.10106041 -0.13347337 0.033139963 0.0989963 0.018317232 0.08569257 -0.11944747 -0.05529126 0.17940113 0.029440422 -0.07798725 -0.0853722 -0.18175615 0.032265227 -0.16868185 -0.098471805 0.060630612 0.12538125 -0.0024057894 -0.09857329 -0.051784314 0.11117929 0.081249446 0.040355932 -0.10830698 0.06746289 0.030220784 -0.04526067 0.10322654 -0.022840967 -0.028677389 -0.10944119 0.06798841 0.06490912 0.043264125 0.03215273 0.0021673853 -0.11183585 0.11361449 0.05485128 0.20082171 -0.10598129 0.18858494 -0.013153079 0.10708554 0.10184893 -0.07599693 0.19056511 0.04926694 0.061987996 -0.023157265 -0.06673211 -0.0007983395 -0.04966971 0.016979268 -0.17965215 0.11985528 -0.10249749 -0.025944607 0.04846385 0.098721646 0.10470174 -0.02666467 0.21164444 0.13246833 0.065089665 0.05667172 0.14736521 0.12264917 0.049267765 -0.08323614 0.007966813 -0.022837806
다 -0.048579972 0.059545413 0.055578396 -0.026800876 0.07677952 -0.2120209 0.07459391 0.2664893 -0.15428163 -0.09605132 -0.069802515 -0.17634764 0.02248908 0.07042 0.05881759 -0.0909018 0.00905999 -0.11411133 0.0072348523 -0.28621274 0.022154337 0.0025684275 0.037192684 -0.087394714 -0.04084666 0.026468419 -0.07208196 -0.09437919 -0.112397395 0.035833962 0.080511436 0.051047157 0.045226816 -0.10123825 -0.043697253 0.19625726 -0.03221017 -0.033856496 -0.03176928 -0.16074644 0.071771435 -0.17658804 -0.04121283 0.059320178 0.10265569 -0.033771347 -0.08368028 -0.044570163 0.085226886 0.07269135 0.09314131 -0.03731892 0.102032945 -0.0014474281 -0.012571426 0.087747246 0.020938825 0.020186324 -0.08488483 0.08100255 0.025900189 0.0016325165 -0.0073044193 -0.0117789 -0.0836318 0.09873911 0.096502714 0.18371496 -0.09687393 0.13456303 -0.03066067 0.03997319 0.11521105 -0.027308686 0.21973833 0.11437418 0.06269101 0.030343203 -0.07105764 0.05278917 -0.074993394 0.09170693 -0.12047597 0.14041865 -0.036427774 -0.00644967 0.11852379 0.13048777 0.16773838 -0.0057833055 0.22149508 0.12851003 0.061064105 0.0124378195 0.19959122 0.12597296 0.07701974 -0.080105714 0.053072184 -0.071732864
? -0.022372473 -0.006374786 0.018524792 0.012930132 0.06628527 -0.20944087 0.047529347 0.29062235 -0.16551538 -0.09907161 -0.07070461 -0.16617619 -0.011509531 0.11823762 0.04833682 -0.049488373 0.009090253 -0.078645505 0.008759772 -0.23127292 0.012748306 -0.0019248307 0.050011404 -0.084761955 -0.0063940613 0.033571456 -0.09189813 -0.0357666 -0.08545026 0.026802652 0.12309119 0.031225437 0.06574906 -0.08986669 -0.066990465 0.14995643 0.019793522 -0.043200675 -0.027659845 -0.17941573 0.027700469 -0.16089763 -0.045774806 0.06225617 0.08341914 -0.0022698946 -0.08879037 -0.030416196 0.11583102 0.05549712 0.04139034 -0.109854855 0.05400327 0.012677117 -0.041340537 0.12854768 -0.011439115 0.015218173 -0.047332443 0.07018998 0.05294625 0.06216119 0.0601033 0.008693336 -0.13675717 0.1355175 0.11335932 0.20626308 -0.14166188 0.18245761 -0.01725356 0.058646865 0.12686579 -0.058954123 0.2239695 0.078312084 0.016297124 0.025288884 -0.13588351 -0.0111414455 -0.07788486 0.048669823 -0.15369435 0.17752035 -0.03719182 -0.032554734 0.0838933 0.12820606 0.11792527 -0.039898198 0.21234863 0.09862616 0.049973514 0.062506236 0.18256117 0.10760688 0.102904744 -0.08364161 0.052708793 -0.04081442
연기 -0.03956926 0.05446635 0.05385698 0.026635095 0.0086174365 -0.17864032 0.07816097 0.25977653 -0.14423485 -0.10589933 -0.052664872 -0.15454508 0.013474959 0.09147538 0.03885099 -0.047427356 0.03507634 -0.14301354 -0.05269212 -0.28714776 -0.0190824 0.049540024 0.034880783 -0.07961864 -0.06551375 0.06716998 -0.07564052 -0.105857834 -0.10922992 0.07732326 0.082584605 0.013559868 0.09758825 -0.096257254 -0.11443267 0.2092226 -0.018261136 -0.09103809 -0.06860284 -0.17853081 0.04648349 -0.11072102 -0.060118627 0.07393486 0.10563219 -0.0095201675 -0.08438865 -0.06983018 0.10074925 0.07825487 0.026875209 -0.1078682 0.029172039 -0.0061764796 -0.04050612 0.13456556 0.017729158 0.019443486 -0.054311436 0.06575574 0.045997035 -0.0077325883 0.026177995 -0.030388204 -0.121732116 0.13612035 0.0679227 0.16998297 -0.16960202 0.16768157 -0.059091564 0.08789621 0.12274743 -0.0941966 0.184488 0.09991838 0.052746806 0.023859967 -0.121445216 -0.0009366293 -0.07971036 0.053814422 -0.14608523 0.17140324 -0.047448844 -0.04174664 0.08563847 0.108377874 0.13118286 -0.043220986 0.19504128 0.12927254 -0.0016286814 0.06814633 0.14837715 0.063916996 0.060080357 -0.049000803 0.06362874 -0.0062791114
만 -0.050516017 0.033035554 0.035097726 0.037959486 0.056379236 -0.18459308 0.03493441 0.2731362 -0.12232375 -0.083206035 -0.04322747 -0.16559127 0.00092229614 0.101785734 0.03706676 -0.073531866 -0.017935285 -0.09979692 -0.04876235 -0.26465473 -0.010801965 0.0403175 0.033217862 -0.034596834 -0.035920955 0.023597224 -0.04699378 -0.07487563 -0.15291813 0.021664847 0.09370453 0.0023125375 0.084697284 -0.081924945 -0.08350087 0.1801751 0.020402836 -0.029361894 -0.05123242 -0.14603584 0.048226446 -0.15433991 -0.11059887 0.07180293 0.09690361 -0.049726047 -0.09438501 -0.048052866 0.09924807 0.08744138 0.0877132 -0.11226402 0.07068992 0.0057148617 -0.07670592 0.123469986 0.016811695 -0.0026846305 -0.11891268 0.049686383 0.04760661 0.05883711 0.04913386 -0.05351336 -0.15678681 0.13051578 0.086542726 0.16800867 -0.11866582 0.15647477 -0.025778698 0.076451324 0.08118271 -0.07371233 0.22365364 0.12876579 0.03790209 0.021777542 -0.12674929 0.013155513 -0.07741035 0.059848174 -0.15921107 0.14713262 -0.101472564 0.0062353476 0.09476458 0.1177955 0.11675675 0.01786166 0.1681391 0.1341617 0.03775621 0.06266242 0.20781247 0.09018046 0.10224024 -0.08385432 0.0051696794 -0.05361544
하고 -0.057441752 0.054875337 0.08255118 0.034209017 0.018117478 -0.18533124 0.020805769 0.27855882 -0.15086746 -0.06220244 -0.040432453 -0.15079693 0.012131846 0.09245541 0.005365765 -0.07417712 0.023558002 -0.13918412 -0.03757156 -0.26101205 -0.018569337 0.007917168 0.06140679 -0.066790655 -0.022713924 0.06669431 -0.08270772 -0.05879475 -0.102452554 0.049391128 0.11549708 0.02282969 0.10903827 -0.12348469 -0.06103362 0.14494878 0.0030680206 -0.10481662 -0.06583148 -0.17948714 0.024249056 -0.14877006 -0.0705159 0.036320098 0.080984786 -0.034289297 -0.07041895 -0.047456168 0.053776883 0.0693917 0.090283625 -0.06820611 0.03450682 0.028866658 -0.08045507 0.06777238 0.0021952307 0.0078249015 -0.11440788 0.050621502 0.044473343 0.054776687 0.0009141481 0.0051869047 -0.12679711 0.11098897 0.13261338 0.20516656 -0.15784322 0.19959715 -0.033151414 0.1029526 0.109913595 -0.08942302 0.21282154 0.07692412 0.03650091 0.018970028 -0.09432607 0.04979914 -0.08316234 0.037635718 -0.13543667 0.1712495 -0.10244678 -0.027541326 0.0953936 0.12306403 0.11898888 0.00526154 0.23504712 0.100463755 0.035141345 0.023064837 0.16823669 0.09909771 0.07838809 -0.0494171 0.021734439 -0.032316204
너무 -0.060186844 0.04807072 0.05415824 0.04333107 0.047689896 -0.2227617 0.03406364 0.27928436 -0.15970378 -0.11242486 -0.07861545 -0.19009465 0.0071359104 0.10423062 0.061332297 -0.026004974 -0.025647497 -0.10454915 0.008301659 -0.2578444 0.004238733 0.05110296 0.02903931 -0.030010898 -0.00084839 0.07902497 -0.09612866 -0.040802196 -0.09694548 0.03406873 0.068667516 0.058105804 0.05514454 -0.11481604 -0.057009988 0.20471616 0.046348035 -0.08777117 -0.09555702 -0.113829434 0.062857024 -0.16363043 -0.111212425 0.020683806 0.0865328 -0.02605469 -0.067159146 -0.033917878 0.07182434 0.04336517 0.10244246 -0.10700191 0.03743404 0.04796323 -0.046146657 0.13240476 -0.01772946 -0.018491345 -0.08286413 0.06519205 0.012066935 0.020778688 0.038671482 0.006466299 -0.09121368 0.11714059 0.0772918 0.17340644 -0.15575063 0.20257229 -0.071809456 0.08554911 0.10050488 -0.09714956 0.16975303 0.11762608 -0.004307027 -0.0012510554 -0.09601534 0.04955759 -0.0861171 0.0701878 -0.11156171 0.13266245 -0.08951896 -0.008228747 0.10438541 0.13158739 0.16627158 -0.0076876828 0.200919 0.11491702 -0.0011063874 0.042601563 0.18782549 0.06596978 0.09001919 -0.07824331 0.04140051 -0.0087355105
안 -0.0696061 0.006354573 0.07589864 -0.02505495 0.00744532 -0.20562226 0.004105415 0.27075887 -0.13807797 -0.09027503 -0.08147635 -0.16112901 -0.022934 0.102697544 0.060251676 -0.026232088 0.03599043 -0.15173014 0.01089247 -0.2732935 0.02489183 0.03756145 0.08091143 -0.106843814 -0.06736691 0.08148603 -0.07403276 -0.05623338 -0.096934475 0.038952265 0.13270453 0.032682765 0.045038015 -0.122380026 -0.07512988 0.13359663 0.040817525 -0.054566864 -0.09338573 -0.11972595 0.07295418 -0.121801876 -0.047191676 0.0009792089 0.1056299 -0.05071142 -0.08708709 -0.0313641 0.08258305 0.07407534 0.07714564 -0.076538906 0.08745774 0.046786662 -0.079762 0.12668838 0.025121354 0.04921393 -0.068113714 0.0559031 0.036084946 0.026445339 0.018507974 0.020149555 -0.11572402 0.11921659 0.11030534 0.14496705 -0.11260089 0.21183613 -0.050855715 0.08677895 0.07943721 -0.09694615 0.23355463 0.07952243 0.058158018 0.008787734 -0.11541457 0.028263647 -0.07018476 0.04658663 -0.14481074 0.17978653 -0.07974762 -0.0274667 0.049699195 0.16485211 0.094515316 0.016904876 0.20848294 0.09262293 0.011717074 -0.00080452237 0.15861024 0.1285243 0.13098668 -0.06775752 0.043512687 -0.0049349344
진짜 -0.07898846 0.022996517 0.057701483 -0.023401298 0.0055738348 -0.23056373 0.074978866 0.28492922 -0.16240673 -0.11270154 -0.050154224 -0.14459585 -0.02318916 0.090671934 0.008958924 -0.030680375 0.0063659674 -0.076298684 -0.06808605 -0.27850625 -0.046329018 0.02547496 0.033239618 -0.045684155 -0.05418317 0.018251512 -0.039917596 -0.09802945 -0.11431936 0.009829414 0.1303632 0.07095724 0.08856376 -0.066236265 -0.050065253 0.14249584 0.049475674 -0.10683641 -0.022020936 -0.13705954 0.024746452 -0.15713452 -0.03847354 0.01703085 0.13426648 -0.036358587 -0.03577119 -0.033090416 0.11447963 0.054423403 0.08803281 -0.048446 0.075384215 0.021182721 -0.034246225 0.12712236 0.035809837 0.0440533 -0.056398705 0.100223266 0.08319364 0.02760892 0.02161003 -0.013171558 -0.11759733 0.10376911 0.058104984 0.13705547 -0.14649382 0.20969877 -0.05796069 0.04697654 0.12331366 -0.06645964 0.20175052 0.10479278 0.04505066 0.025622485 -0.09913696 0.019560147 -0.017206362 0.066105716 -0.16515692 0.18292469 -0.05126963 -0.017114775 0.06762617 0.13516329 0.15457661 0.017367108 0.19238015 0.08397775 0.033703633 0.030858215 0.19136931 0.06027853 0.1300314 -0.10452396 0.06389721 -0.07959852
! -0.0056972904 0.07251923 0.05109251 -0.01846971 0.041501634 -0.19517516 -0.00095882546 0.29864442 -0.13105868 -0.056288373 -0.09713173 -0.10942156 -0.015944367 0.0861339 -0.024555413 -0.028010946 0.039903954 -0.07052452 -0.06314165 -0.30294913 -0.040133324 0.023264673 0.017943539 -0.115571894 -0.039308313 0.05015477 -0.11652303 -0.08732496 -0.116575114 0.07745876 0.10281282 0.032227807 0.039575517 -0.13011366 -0.07320784 0.2103881 0.04357598 -0.07379413 -0.048218146 -0.20575155 0.026878303 -0.17079276 -0.04102445 0.02470833 0.07505115 -0.06735477 -0.07725847 -0.074148126 0.07365416 0.042089667 0.049480014 -0.104298115 0.01851366 0.009425559 -0.044823967 0.069204964 -0.042453606 -0.013550113 -0.13966264 0.06408134 0.08432929 0.011675826 0.042629033 0.00979834 -0.06927728 0.13395461 0.14942142 0.12154035 -0.18391736 0.13672832 -0.08740412 0.028574679 0.058907926 -0.08776034 0.20340648 0.07261516 -0.021949343 0.030896762 -0.10000762 0.042651698 -0.010468503 0.097003646 -0.15429103 0.1798557 -0.10227199 -0.019435236 0.108617574 0.18112077 0.11053127 0.005794741 0.15549712 0.10595885 0.08142322 0.005797237 0.1708085 0.04573392 0.037113603 -0.024656983 0.008147529 -0.01454115
에서 -0.08630807 0.021725222 0.014813964 0.031404234 0.06839929 -0.17472234 0.070531815 0.2619066 -0.17808746 -0.044591088 -0.07186593 -0.12567751 0.0026988126 0.081734866 -0.00266039 -0.05575975 0.023841424 -0.1392885 -0.02005411 -0.28830358 0.022787234 0.01514914 0.102910526 -0.087480344 -0.064273685 0.010617425 -0.07613716 -0.047604337 -0.12146834 0.07520333 0.102461725 0.05048868 0.09450113 -0.061043326 -0.076303095 0.19542712 -0.02639898 -0.055445526 -0.057809636 -0.1483453 0.06294654 -0.15473342 -0.08441425 0.036959812 0.09888687 -0.025488464 -0.045637477 -0.055946402 0.11283218 0.06758042 0.073802516 -0.07086494 0.065309845 0.024335848 -0.067080654 0.11321308 0.00066477666 -0.0021177072 -0.11861647 0.030514665 0.051167507 0.005224121 0.02223345 -0.036027677 -0.1494607 0.1036146 0.117973156 0.16789247 -0.16406032 0.18721665 -0.043525063 0.054403402 0.09803143 -0.072953254 0.18454982 0.052859418 0.05792002 0.017880268 -0.11486233 0.045334507 -0.053272672 0.08196495 -0.15392925 0.1849386 -0.07563452 -0.051169593 0.063036464 0.16095707 0.13272212 -0.007939732 0.2220596 0.09357027 0.027285766 -0.0018646516 0.15093136 0.06647 0.10585446 -0.06496772 0.060476646 -0.03185955
적 -0.04980649 0.06063719 0.03226341 0.022204079 0.08828402 -0.19587374 0.07096467 0.23024543 -0.109015234 -0.054165248 -0.027125198 -0.21248375 -0.022600776 0.10491121 -0.005857587 -0.08673951 0.036064878 -0.15212695 -0.05517157 -0.21525691 -0.046795778 0.073298015 0.0689849 -0.042742018 -0.044888575 0.014731865 -0.11127894 -0.069894336 -0.14988181 0.023617446 0.13677856 -0.0041297325 0.049006443 -0.12002337 -0.105876945 0.12163031 0.005344594 -0.017420813 -0.012446328 -0.18076497 -0.0070960936 -0.15804154 -0.12574078 0.0121147 0.06948435 0.0063279285 -0.1106902 -0.02613577 0.09575495 0.09634955 0.052529816 -0.1369754 0.09569611 -0.015303954 -0.028892132 0.105749145 0.048437864 0.017984822 -0.09545214 0.103804454 0.01322669 -0.017686624 0.045435026 -0.033562917 -0.14098524 0.09277652 0.04083608 0.1792938 -0.14271653 0.16158584 -0.030516034 0.10021376 0.1388324 -0.11432202 0.1707375 0.04309454 -0.018671736 -0.01768782 -0.11209042 -0.028467212 -0.08377621 0.043477904 -0.11528354 0.16662952 -0.03058237 -0.07574245 0.055619795 0.11874044 0.17790991 -0.005528948 0.20015262 0.1253934 0.049426634 -0.020550653 0.19498621 0.12843174 0.11857089 -0.05218407 -0.0048692403 -0.064029515
로 -0.026380654 0.030051913 0.0069934595 0.023299089 0.0207901 -0.17409928 0.061989125 0.2513846 -0.13656856 -0.05869387 -0.070069075 -0.1697109 0.018762214 0.12697598 -0.0128230965 -0.020522784 0.042358916 -0.12880114 -0.016410038 -0.27951762 0.02608971 0.026874585 0.0921054 -0.029040603 -0.011142104 0.015024568 -0.07121328 -0.06264916 -0.11544347 0.052865908 0.13319823 0.05700161 0.1267727 -0.12962726 -0.09599225 0.18069734 0.026925387 -0.07493216 -0.08586781 -0.16806851 0.00091585657 -0.108523436 -0.06255532 0.005629058 0.117756195 0.005795649 -0.09488257 -0.058446195 0.090659216 0.10716413 0.023848653 -0.088080555 0.038919777 0.013669015 -0.044350002 0.07642997 -0.011175157 0.012590106 -0.11361482 0.10059085 0.0702105 -0.008041609 0.017539512 -0.007226285 -0.15541638 0.07400475 0.06009192 0.15963247 -0.10319217 0.21075936 -0.032791615 0.04170681 0.1317384 -0.052945524 0.20232524 0.05522116 0.021265402 0.002387004 -0.141143 0.026643906 -0.054544423 0.02493012 -0.18887128 0.18776345 -0.111730844 -0.053058986 0.107055 0.124827184 0.12081109 -0.03427687 0.19146825 0.14454757 0.0100614345 0.009439124 0.16209635 0.08138749 0.06080172 -0.11901713 0.071881205 -0.009712884
내 -0.07690571 -0.009269478 0.037009615 -0.012940612 0.08312593 -0.18364315 0.0120638665 0.25162056 -0.18599291 -0.071083814 -0.07152395 -0.17054449 0.0032302605 0.11838911 0.04519677 -0.07901444 0.029817931 -0.15295482 -0.0546417 -0.29275006 -0.01784549 0.02802261 0.04873817 -0.058623075 0.009335191 0.07131757 -0.06489563 -0.028114205 -0.11340872 0.030904036 0.06404628 0.06391941 0.04513917 -0.098855406 -0.036802452 0.15728539 0.017947529 -0.099087074 -0.035114583 -0.11998791 -0.0029396676 -0.1587573 -0.04074647 0.05226389 0.1022474 -0.010522138 -0.11106339 0.009108828 0.07442475 0.046590313 0.07539026 -0.080269866 0.04119978 0.0409003 -0.06650533 0.06855248 0.03104181 0.03573043 -0.048397236 0.072784156 0.052371576 -0.004526109 0.04492264 0.01996903 -0.12110745 0.09390606 0.07789404 0.17546351 -0.17000741 0.20010497 -0.03785791 0.113650985 0.07605202 -0.09268408 0.17039452 0.059478518 0.04139343 0.023375565 -0.099695675 0.031700116 -0.0938 0.049069762 -0.18135302 0.1702593 -0.08397639 0.00819466 0.06680923 0.15265529 0.1465944 -0.006043302 0.19007255 0.15272394 0.043098014 0.06531805 0.19172391 0.12181585 0.11262371 -0.10836983 0.015547715 -0.036972705
인 -0.055839073 0.039850917 0.047384597 0.039411206 0.019300217 -0.18691386 0.069504835 0.26686126 -0.118564025 -0.055872392 -0.05835666 -0.19378114 -0.0028662442 0.04027387 0.0115827285 -0.095988594 -0.0016928483 -0.1492316 0.011946226 -0.2730297 0.040224116 -0.017440403 0.04004471 -0.054557253 -0.043042067 0.047354728 -0.077101976 -0.06708491 -0.14468478 -0.012181762 0.11969649 0.0362013 0.11115751 -0.12346786 -0.049500953 0.11291183 0.047403127 -0.035925847 -0.08509294 -0.103629634 0.0071128607 -0.17957212 -0.06522851 0.053215027 0.058447193 -0.055182498 -0.02100174 -0.023052698 0.08360038 0.07690855 0.04179213 -0.073614016 0.073171824 0.0645175 -0.07976384 0.10151218 0.032031555 -0.024228435 -0.12563543 0.109988645 0.082783625 0.007301032 0.053439766 -0.01593881 -0.1382322 0.09027476 0.06543893 0.20052706 -0.12220632 0.12753755 -0.04213175 0.059137486 0.1331408 -0.07460385 0.2253894 0.09732031 0.010244488 0.04031079 -0.08771096 -0.004785979 -0.08165248 0.036915626 -0.17010169 0.16871156 -0.11600681 -0.05616326 0.09377929 0.12036457 0.15551469 -0.027301174 0.1809499 0.12706149 0.060022112 0.037693195 0.2184506 0.11314473 0.051232435 -0.07975262 -0.0017209097 -0.06706074
과 -0.06898785 -0.012498781 0.086091675 0.013520255 0.0393247 -0.22384454 0.0005833598 0.22317441 -0.10517775 -0.09062252 -0.032173958 -0.17853816 0.026234608 0.10456387 0.031896874 -0.06820422 0.0063122986 -0.12629977 0.006528923 -0.24256623 -0.0044541555 0.0431247 0.08318948 -0.097042024 0.012259494 0.051674567 -0.08729665 -0.02740748 -0.12690279 0.07646829 0.08402678 0.069035605 0.09735107 -0.11242049 -0.08532418 0.21100812 0.018913448 -0.09550769 -0.0536404 -0.1623232 0.04410073 -0.18282714 -0.04164621 0.044642452 0.13779062 0.008625303 -0.09060255 -0.013940976 0.08049091 0.02390777 0.10178929 -0.040985525 0.11066892 0.0011215254 -0.09459059 0.11784332 -0.03374262 0.048532397 -0.07361718 0.09392229 0.07925708 0.03026201 0.017125532 -0.01705422 -0.073660105 0.07051052 0.088351704 0.16882187 -0.11684625 0.20622583 -0.062617384 0.09297023 0.0833535 -0.056399025 0.23575123 0.10696453 0.009491764 -0.010576827 -0.07097204 0.061637636 -0.026792942 0.040982075 -0.15923946 0.13123767 -0.09510306 -0.013503452 0.051377848 0.09510369 0.16819003 0.032126952 0.22959185 0.12634489 -0.0072503937 -0.0038041566 0.18669944 0.05710277 0.059361916 -0.06823565 0.026997687 -0.08365601
보고 -0.03534558 -0.0018088592 0.017516606 -0.0034374811 0.051005352 -0.19784267 0.01961323 0.28601837 -0.111429416 -0.10432722 -0.01868621 -0.12891497 -0.04466234 0.07811215 0.041836657 -0.026028583 -0.01262358 -0.13504642 -0.008050383 -0.28848 -0.028954325 0.021546254 0.08314245 -0.08604568 -0.011102299 0.041975047 -0.05067357 -0.041356545 -0.1139295 0.066544555 0.08926605 0.008154396 0.11395966 -0.10844858 -0.050771542 0.15161936 -0.015735585 -0.090277754 -0.03917599 -0.15140648 0.040423546 -0.17434773 -0.091601655 0.016643938 0.1296143 -0.043054607 -0.050911892 -0.033371717 0.08220374 0.09855473 0.05121232 -0.10724218 0.06881084 0.04490317 -0.023710508 0.07973457 0.009097188 0.026278177 -0.10340833 0.09189097 0.026619434 0.036324847 0.04195147 -0.0044630338 -0.13303359 0.109141394 0.11918408 0.20739181 -0.16944282 0.19308497 -0.023968507 0.07030805 0.13461018 -0.0856668 0.18792787 0.06592631 0.01525953 0.00446654 -0.115794815 -0.0029212313 -0.03055088 0.03382267 -0.1710145 0.18258645 -0.04046464 -0.013275253 0.08038435 0.1244499 0.12536551 0.013732555 0.1662521 0.1190317 0.048359167 0.021500539 0.18084478 0.11016149 0.12477211 -0.06792776 0.07424719 -0.063083
잘 -0.03944467 0.014367981 0.024383195 0.010218352 0.025907448 -0.23214267 0.055941872 0.31786895 -0.18184857 -0.1274086 -0.07193713 -0.12786801 -0.06695612 0.13706654 0.024181247 -0.040751863 -0.007899545 -0.14577584 -0.012660566 -0.2389532 -0.044156477 0.021677025 0.077979594 -0.04937752 0.0065826 0.027198184 -0.030598134 -0.095624186 -0.13707146 0.08407756 0.12071785 -0.002786501 0.07871404 -0.13742481 -0.078189485 0.20324057 -0.0248517 -0.04309407 -0.027057754 -0.17561126 -0.009196057 -0.1631224 -0.09269933 0.057910785 0.14927095 -0.00080090435 -0.08272369 -0.018442525 0.052508734 0.064761296 0.060016803 -0.04142138 0.041422226 -0.016386682 -0.04596017 0.11246157 -0.033956785 -0.018812353 -0.095701054 0.05421427 0.009342084 0.008821769 0.012585354 0.010584222 -0.117794156 0.11289324 0.09870557 0.16736747 -0.12783381 0.18668136 -0.016103486 0.07522941 0.066206045 -0.06915166 0.25101215 0.06747837 0.004211694 -0.0105128465 -0.06842207 0.013192529 -0.009287002 0.015606311 -0.11096726 0.11744593 -0.034222037 -0.021009712 0.09798455 0.098712415 0.17732115 0.018291354 0.17192782 0.07616557 0.07019189 0.0049381168 0.13927431 0.115030095 0.070148826 -0.11497071 0.0883752 -0.051840916
점 -0.06398402 0.00533065 0.015534616 -0.024747433 0.009175255 -0.21422197 -0.0103231175 0.30289418 -0.098443545 -0.09343294 -0.035327226 -0.18986106 0.02714501 0.1289294 0.029245067 -0.08615484 -0.016377995 -0.0788936 -0.042221617 -0.22192712 0.045717925 0.050801277 0.033167012 -0.031614896 -0.042871073 0.0020814189 -0.015529329 -0.115684636 -0.1194273 0.028133707 0.036909275 0.026304267 0.10927352 -0.11560174 -0.10329289 0.19256842 -0.010730953 -0.106932804 -0.049495943 -0.14025259 0.0764067 -0.13208155 -0.02397884 -0.02002236 0.117417105 0.025646053 -0.057571385 -0.04646001 0.081278406 0.057878345 0.011276721 -0.11735754 0.06833611 0.0043355445 0.004060925 0.08249492 0.03743746 0.02113491 -0.032818526 0.009936025 0.06187603 0.017088735 0.036097333 -0.020055385 -0.14821279 0.14625886 0.0713442 0.17596278 -0.16528812 0.18297169 0.017870858 0.06272357 0.13442208 -0.065775566 0.22805129 0.14028256 0.026051568 -0.0063036187 -0.15344438 0.07363267 -0.06339869 0.06607221 -0.14831114 0.19330665 -0.020154553 -0.019080184 0.09033267 0.15319395 0.133541 0.026738562 0.17637724 0.09644647 0.06272615 0.0074706804 0.14965796 0.14261734 0.03235684 -0.091090605 0.019834734 -0.0069008223
.... -0.030585293 0.005610009 0.068857774 0.0036108012 0.009591329 -0.21091561 0.03265804 0.25539067 -0.15329881 -0.10285813 -0.032447077 -0.1266192 -0.025797155 0.10204687 0.024664156 -0.055174895 -0.027942859 -0.112807065 -0.0126616545 -0.2397878 0.015976114 0.041442957 0.08515434 -0.097547166 -0.03589108 0.022075672 -0.03665638 -0.03705494 -0.14046395 0.04397446 0.113663636 0.043939676 0.08759049 -0.12013557 -0.033606466 0.1449704 -0.011694277 -0.090557836 -0.083278745 -0.16845345 0.00068204274 -0.14312087 -0.09318665 0.029834745 0.12716848 0.0011476056 -0.065556474 -0.037462108 0.12439626 0.070369236 0.08492689 -0.050809022 0.030544108 -0.019057635 -0.01972788 0.1074679 -0.007444317 0.02783917 -0.104674704 0.04556128 0.020065805 0.057227295 0.018054299 -0.050512128 -0.14537005 0.12667505 0.08744444 0.15976925 -0.14806898 0.17553553 -0.056994274 0.068980895 0.1219131 -0.06813348 0.18790518 0.10444355 0.05066768 -0.0328911 -0.13777149 0.04103432 -0.089977995 0.05699092 -0.1896392 0.19547912 -0.09411914 -0.056281883 0.07879942 0.123179495 0.16325866 0.024385292 0.19407904 0.1345169 0.051571622 0.032315608 0.16053432 0.100922614 0.10159955 -0.04623681 0.028279228 -0.08311744
하는 -0.042084813 0.0686396 0.021441728 0.0016354806 0.028752169 -0.18401834 0.07653873 0.2798007 -0.13430963 -0.06081033 -0.040635657 -0.196634 -0.00847893 0.08722806 0.019867595 -0.033661466 -0.0050177583 -0.08332746 -0.030824617 -0.272226 -0.017943261 -0.0041082692 0.034262817 -0.052107237 -0.05454941 0.056201983 -0.05401774 -0.09527219 -0.13950267 0.019976888 0.063391685 0.038671687 0.12450907 -0.120346 -0.08854022 0.20906503 0.046568092 -0.035395585 -0.095007144 -0.14010352 0.013872912 -0.12604932 -0.058039464 0.028494846 0.13394095 -0.04120737 -0.05721814 -0.0163144 0.109823145 0.09309815 0.057560075 -0.07442005 0.04696457 -0.006112904 -0.0479984 0.06540157 -0.00028209094 0.014796687 -0.058856722 0.045587897 0.04571707 0.014720488 0.008531965 -0.022831742 -0.108617276 0.08772295 0.093244895 0.21934573 -0.15002327 0.17364906 -0.01801768 0.08391226 0.10846488 -0.039989278 0.23691131 0.107214354 0.04395442 -0.0071824407 -0.081285834 0.036394414 -0.076049216 0.033781517 -0.16012521 0.13820389 -0.06732815 -0.06480295 0.08008253 0.14332317 0.14853445 0.00052894145 0.16812854 0.13913824 0.05525651 0.044684783 0.21678182 0.11119531 0.11947536 -0.047401294 0.03921724 -0.048438814
못 -0.048678033 0.000363352 0.06401262 -0.015004425 0.030764738 -0.1964751 0.067395546 0.26399356 -0.14108732 -0.08631352 -0.0602861 -0.15533528 -0.03744116 0.067638315 0.026339058 -0.030328825 0.007762705 -0.08176147 -0.023951856 -0.26212358 -0.03756922 0.050030842 0.08998604 -0.08547173 -0.008782506 0.078080446 -0.08384189 -0.07389788 -0.15100266 0.050785437 0.074920475 0.042949513 0.116529 -0.12003757 -0.101831235 0.16818303 -0.020773862 -0.101122655 -0.08978013 -0.14626835 0.029724946 -0.13630332 -0.07682077 0.07260378 0.13087755 -0.035818394 -0.034299668 -0.06698826 0.07455008 0.074440345 0.060890194 -0.096028194 0.06457696 0.01934246 -0.08796017 0.07081889 -0.028970296 0.02436762 -0.08633714 0.036546204 0.06922049 0.027475554 0.03480444 0.0014428414 -0.12969197 0.12834121 0.06045034 0.15794715 -0.1605444 0.17271195 -0.07089263 0.10808402 0.12005678 -0.09588186 0.21315506 0.11196458 -0.00043813817 0.020751102 -0.13194814 0.05086858 -0.03464426 0.051740203 -0.17702891 0.14819413 -0.07294907 -0.024807636 0.111042015 0.1081429 0.09222783 -0.045363165 0.1782828 0.11960224 0.033041272 0.019885967 0.20352326 0.09580167 0.11190479 -0.0572068 0.009198028 -0.047127966
최고 -0.13716494 -0.036134295 0.0121303145 0.072248265 0.037453614 -0.10691826 0.015378893 0.2142556 -0.10453282 -0.056302544 -0.05866694 -0.18326467 -0.07824626 0.12647323 -0.047902532 -0.13818567 -0.0918478 -0.028367674 0.013256338 -0.18903667 0.08885117 -0.047725506 0.10622821 -0.038659297 0.034688115 0.0079112165 0.030776951 -0.12149671 -0.051404666 0.10867742 0.08876151 0.085935995 0.15033007 -0.07486798 0.0048903045 0.19196194 -0.0056407666 0.0060435627 -0.007952197 -0.18244359 0.052143566 -0.14487605 -0.025870254 -0.016919132 0.06018972 -0.020628082 -0.03217362 -0.09808797 0.16118993 0.038302045 0.12221922 -0.05518443 0.13351662 -0.028579732 -0.0856536 0.12627505 -0.027440963 0.06994555 -0.14628568 0.09536502 0.04248485 0.01932641 0.052362047 -0.04162227 -0.16103484 0.016270977 0.11823424 0.23207314 -0.19440201 0.26973084 -0.0040334635 0.023342483 0.0897914 -0.03078186 0.1260366 0.10954654 0.08485145 0.06327567 -0.050016448 0.05297762 -0.08307205 -0.0038100686 -0.06702126 0.08643868 -0.09083657 -0.06265009 0.14667924 0.058937956 0.16830263 0.010211178 0.14978927 0.035173215 -0.047090396 0.06338983 0.081900135 0.15853253 0.060736272 -0.16837673 -0.011734779 0.03386165
감동 -0.07265219 0.071979366 -0.012600768 -0.056139965 0.013146529 -0.19573362 -0.005195364 0.21568102 -0.20520355 -0.08555261 -0.009246506 -0.21634333 -0.054335605 0.09772312 0.04757506 -0.10509182 0.049562726 -0.17046842 0.0023265309 -0.20563897 0.02655129 0.06692091 0.12024842 -0.04697497 -0.074666485 0.079937086 -0.11574554 -0.10503469 -0.08890259 -0.010446531 0.057234954 0.015633281 0.10706084 -0.06282061 -0.057420112 0.20582475 -0.0048406716 -0.041282732 -0.10289288 -0.16476454 -0.012138194 -0.14909394 -0.05097337 0.07041104 0.07527477 -0.0012519414 -0.023295393 -0.06881995 0.062254462 0.06645284 0.03576197 -0.03192002 0.116162665 0.07525911 -0.00056694774 0.043236565 -0.0007230712 -0.039547026 -0.11941338 0.01728004 0.07454236 0.03116387 -0.01768547 0.030370641 -0.116532974 0.10702127 0.074964695 0.16288415 -0.1581543 0.2297103 -0.029007602 0.045165498 0.13668375 -0.06743367 0.18496928 0.14068028 0.005960036 0.048897214 -0.13498464 -0.028380958 -0.08480174 0.031208908 -0.15784773 0.15099494 -0.045658633 0.0033251448 0.07402058 0.15095909 0.12179803 -0.0076011913 0.18872088 0.10703724 0.0061729974 0.0036957 0.18268889 0.111844935 0.035199348 -0.04190219 0.030614197 -0.06296153
고 -0.0826438 0.011451527 0.022741815 -0.04276203 0.041446727 -0.23276585 0.01665772 0.23226732 -0.09869504 -0.085240886 -0.09033308 -0.13280281 -0.055687875 0.07620897 0.040188536 -0.08464882 -0.039492045 -0.1457653 0.007763308 -0.21957058 0.009392447 0.03705827 0.08606614 -0.08720913 0.016607607 0.07586445 -0.041963585 -0.02344273 -0.16017847 0.043493938 0.13502651 0.03154327 0.050807714 -0.10153139 -0.08186561 0.1556549 0.0016003394 -0.03327441 -0.059437256 -0.13228288 0.019780733 -0.10625662 -0.10669419 -0.00484348 0.08273066 -0.046261717 -0.092112534 -0.031204956 0.09431584 0.07675367 0.0872336 -0.09192042 0.0766779 0.01855751 -0.019998837 0.13183168 -0.008324133 0.015668266 -0.11398826 0.046486232 0.018572478 0.027427845 0.0041908138 -0.039990555 -0.112350956 0.11384434 0.052012153 0.18765496 -0.11467114 0.19699745 -0.057029203 0.11962697 0.14904729 -0.06957793 0.20013775 0.04733969 0.0068047633 0.0030924408 -0.08710307 0.018325401 -0.09559967 0.081310086 -0.1837285 0.1985443 -0.050658483 -0.06061859 0.09413349 0.15926045 0.10222524 -0.04330758 0.2345525 0.12718739 0.078352675 -0.017056197 0.17367257 0.13149916 0.08610465 -0.08510915 0.0065454114 -0.07093423
왜 -0.08866073 0.07202907 0.036263715 -0.034887984 0.08073206 -0.20684975 0.030524934 0.25773248 -0.12854463 -0.099258535 -0.05518135 -0.16772473 0.023267034 0.116571434 0.030764632 -0.07849761 0.017433586 -0.10598081 -0.053749852 -0.282323 -0.023357742 0.037207138 0.027547894 -0.08766856 0.009212642 0.026201935 -0.023418678 -0.0639098 -0.14520603 0.018296884 0.091429956 0.056532156 0.053026773 -0.116618134 -0.10082801 0.19633009 -0.0017204796 -0.047905505 -0.064064 -0.18509968 0.030188031 -0.14153753 -0.05726901 0.00011240014 0.06936209 -0.04164388 -0.055593923 -0.050513454 0.08626149 0.08543173 0.083424434 -0.07250234 0.050732445 0.01860229 -0.079626285 0.063519925 0.039441228 -0.009878948 -0.12794746 0.083351135 0.08928988 0.02746618 0.035554826 -0.03617761 -0.1353888 0.06039383 0.057526503 0.13347237 -0.16318753 0.21198353 -0.00013558696 0.0672043 0.10291287 -0.033888623 0.20177825 0.0652804 0.039941464 0.010729312 -0.120978095 -0.0065353336 -0.0091158105 0.088135235 -0.18569604 0.1294689 -0.06545471 -0.026967404 0.04153442 0.16645642 0.102344684 0.0082282135 0.23104684 0.122373156 0.052353702 0.01763935 0.1300854 0.10121651 0.08481104 -0.12059148 0.07036264 -0.07565736
아 -0.024719335 -0.0011562578 -0.020453868 -0.061210535 0.09099139 -0.23193537 0.07416629 0.25528935 -0.07601135 -0.02846015 0.012771394 -0.100713044 -0.074537404 0.020503303 -0.010114263 -0.05745237 0.035006203 -0.085283406 -0.040058494 -0.2237477 -0.03374239 -0.022503443 0.09802981 -0.1357109 -0.020595547 0.0071357614 -0.006723084 -0.09178863 -0.10183808 -0.0053630252 0.15789598 -0.003696449 0.105823986 -0.068594016 -0.005909176 0.1293408 -0.019697668 -0.11076852 -0.010878856 -0.18100394 0.071538255 -0.1507903 -0.025524834 -0.0034593032 0.10246986 -0.0116967745 -0.12969856 0.030305969 0.06924518 0.11185362 0.06618981 -0.049500424 0.08424743 0.07895153 -0.115334116 0.1559102 0.059706975 0.017664095 -0.054780897 0.09464214 0.080152534 0.0073970244 0.046635345 -0.014278178 -0.08407379 0.15843825 0.040852446 0.18009853 -0.1988089 0.16637962 -0.10703553 0.097501285 0.09431363 -0.075898774 0.24269569 0.03506101 0.038067207 -0.013536774 -0.13146286 -0.03455459 -0.111765556 0.111411795 -0.20145611 0.19077532 -0.10055783 -0.037895884 0.100975566 0.06163644 0.09203969 -0.06536007 0.12536803 0.086348556 0.013890697 0.033829827 0.17298374 0.046419542 0.06606996 -0.09589473 -0.0055312538 -0.08665364
말 -0.06953062 -0.0061941943 0.008551239 -0.031777482 0.060122523 -0.22870712 0.022041162 0.29353088 -0.10962108 -0.10720698 -0.023906002 -0.19265687 -0.018436763 0.11553047 0.013788181 -0.0096739745 -0.0015863023 -0.091842465 0.0047549717 -0.29585493 -0.035068452 -0.006162984 0.058815647 -0.097424515 -0.028127156 0.007420537 -0.058206435 -0.06710058 -0.092289925 -0.0014486477 0.07518977 0.062239457 0.12302891 -0.09778919 -0.06494977 0.13947007 0.014211444 -0.1034994 -0.09034812 -0.1416313 0.036327936 -0.11862964 -0.11856378 0.04670154 0.10899721 -0.036194 -0.068707846 -0.005384336 0.053268146 0.06863732 0.07989536 -0.07544102 0.07794095 0.05196307 -0.024999317 0.109477706 0.03676889 -0.023789931 -0.050121687 0.08578481 0.022486169 0.009138073 0.053693008 0.005498019 -0.1615474 0.10594756 0.091885455 0.17935088 -0.10447968 0.1424189 -0.0010515798 0.032800633 0.13051865 -0.028897466 0.17721473 0.049328174 0.05812031 -0.038508605 -0.14161654 0.013653629 -0.083617695 0.09409017 -0.11076856 0.16117975 -0.03740147 0.01543126 0.10369191 0.14255378 0.15309455 0.01795227 0.20975569 0.14612676 0.0002101017 0.06899262 0.21283355 0.14111958 0.051102508 -0.09152159 0.03861783 -0.023497518
더 -0.09186084 0.030495094 0.0701799 0.043382462 0.033047643 -0.19098781 0.06428495 0.25802803 -0.13663079 -0.11786376 -0.052150868 -0.13978583 -0.0011355516 0.04691376 0.0056520845 -0.039140925 0.0068891393 -0.13446939 -0.0035406954 -0.2475501 -0.040392306 0.06758072 0.03378717 -0.07821994 0.010251612 0.04778617 -0.08406988 -0.06032904 -0.13954276 0.013053439 0.06125904 0.05566842 0.045487303 -0.07381524 -0.093131155 0.19117005 -0.006132831 -0.09134604 -0.030679317 -0.1861077 0.041477382 -0.15294619 -0.10432848 0.009356837 0.1302386 -0.029859176 -0.05031205 -0.07159567 0.09040674 0.06047321 0.03928452 -0.09584183 0.031016098 0.0016481316 -0.06531979 0.086273424 -0.019494997 -0.02708256 -0.063286655 0.064564236 0.07336058 0.0387276 0.059454024 -0.03594228 -0.15494779 0.1080672 0.055819705 0.20309243 -0.103166856 0.17740633 -0.013972615 0.11058815 0.12122539 -0.04895371 0.2329697 0.09616223 -0.0035051121 -0.03144495 -0.11231043 0.013737785 -0.019054707 0.01909823 -0.15801783 0.19465677 -0.08115151 -0.066082925 0.08895543 0.10055059 0.10935596 -0.037186906 0.19071855 0.14926624 0.048516996 0.06276176 0.21408038 0.11703945 0.06668783 -0.047710422 0.001352843 -0.06204882
~ -0.0103646 0.07987807 0.012161289 -0.045014173 0.092852496 -0.21870185 0.013764411 0.3091173 -0.11059452 -0.055399686 -0.062104013 -0.104051836 0.033246025 0.1291078 0.08104343 -0.08605944 0.0069165416 -0.12323642 0.011375606 -0.19810864 0.020636294 0.051460642 0.10564618 -0.029642524 -0.027252581 -0.0073175877 -0.07524475 -0.009947676 -0.15224734 0.045736942 0.120654754 -0.0068398896 0.13350363 -0.082705274 -0.053323817 0.21818623 0.01916344 -0.063103154 -0.11410612 -0.08850194 -0.025029585 -0.0918153 -0.044155583 0.03894874 0.053485543 0.04654642 -0.07794954 0.00013490675 0.06380509 0.03880658 0.063414484 -0.13288356 0.02651609 -0.039862912 -0.022213897 0.096962735 -0.004879565 0.04109871 -0.09671017 0.02539182 0.06791424 -0.010258171 0.028267836 0.03846201 -0.12216586 0.13854888 0.12153736 0.15475492 -0.16770978 0.22908321 -0.03031192 0.07322427 0.10979279 -0.10161353 0.2174893 0.07204778 0.05559354 -0.026351286 -0.10901237 0.038807735 -0.098879516 0.039865945 -0.20106879 0.16446768 -0.06175403 -0.014139581 0.08698074 0.12455223 0.1439301 -0.016637314 0.22532763 0.100107074 0.0034640874 -0.004100018 0.11732016 0.049506024 0.10350201 -0.05148528 0.0052074194 -0.10014836
시간 -0.09220329 0.05469295 -0.0013062999 0.030057777 0.07800671 -0.16808954 -0.001794516 0.2832824 -0.17439796 -0.034380347 -0.07754836 -0.17209381 0.007979442 0.08449096 0.05223293 -0.072446615 0.026563874 -0.16437915 0.0049552694 -0.26734996 -0.039059926 0.027194047 0.05869968 -0.07202539 -0.03857557 -0.005058298 -0.10243271 -0.10162815 -0.16627832 0.016116172 0.14020646 0.026930034 0.04497499 -0.12106665 -0.052972153 0.15597749 0.0031469555 -0.09035881 -0.025843067 -0.19114791 -0.0006572613 -0.106912546 -0.1119575 0.050188556 0.105223455 0.03782114 -0.048033908 -0.023317838 0.09735326 0.07885944 0.07462642 -0.09970758 0.086899415 0.048052445 -0.010403063 0.09157171 -0.0067865574 0.041671686 -0.12909117 0.0657093 0.017154917 0.051831312 -0.020111712 -0.0047146617 -0.07286048 0.09243819 0.050974872 0.136122 -0.122317724 0.15068415 -0.011061578 0.07080252 0.14435664 -0.07365251 0.16692245 0.06299819 0.03342008 -0.02377981 -0.07378176 -0.0008342609 -0.083025314 0.059847105 -0.17592262 0.11713189 -0.10268924 -0.03995144 0.08476747 0.14353588 0.16775732 0.023367012 0.22162594 0.12208659 0.0028472708 0.077269316 0.17601368 0.12235862 0.08457066 -0.047024097 0.068404205 -0.07952124
으로 -0.06948825 0.030055758 0.051437296 -0.038691584 0.06478381 -0.17600034 0.035790812 0.24248272 -0.17438725 -0.04237389 -0.090825364 -0.18810579 0.001416616 0.045994546 0.010190091 -0.059221726 -0.007462248 -0.1416397 -0.006333446 -0.24739374 0.007940702 0.020249281 0.09486308 -0.10665461 -0.0012466351 0.019291317 -0.052649334 -0.094907366 -0.12881248 0.008980781 0.07552119 0.07922938 0.091604546 -0.08241396 -0.09495112 0.18712403 -0.025602821 -0.076706246 -0.08486245 -0.17571299 0.045860507 -0.15559386 -0.06329182 0.057058167 0.070196554 -0.019399177 -0.07922786 -0.07598061 0.036083125 0.07135171 0.08127437 -0.08198139 0.04252299 0.032845676 -0.04647998 0.049407292 0.033363283 0.044970382 -0.117758766 0.06366927 0.07583062 0.013642666 0.023058774 -0.03909756 -0.08688277 0.13090606 0.100716874 0.15139785 -0.14133365 0.15343209 -0.087372094 0.109311305 0.09866141 -0.07146009 0.2228949 0.046334304 0.056039046 -0.03224506 -0.1266002 0.03835028 -0.06897385 0.03847593 -0.17253664 0.13458441 -0.08450587 -0.047617197 0.1211788 0.1625858 0.12568487 -0.011739428 0.15917386 0.15133502 0.0097403675 0.054937467 0.21247758 0.12243805 0.084510185 -0.049230948 0.06996439 -0.05950303
하나 -0.05990549 0.057174373 0.06727736 0.005546085 0.054469902 -0.22212572 0.0019455864 0.24847367 -0.16669029 -0.07845702 -0.07057624 -0.1608519 0.010540365 0.12694329 0.058566708 -0.0391544 -0.0104342345 -0.10332067 -0.038442917 -0.29520458 0.017256724 -0.0056185774 0.08202444 -0.082852036 -0.049996737 0.03924217 -0.08951743 -0.03348709 -0.14929545 0.0043005794 0.11468724 0.052046567 0.103223175 -0.08141314 -0.085192144 0.14947118 0.01736071 -0.033083305 -0.077019684 -0.16030447 0.046327725 -0.11866652 -0.103301115 0.01833754 0.091429815 -0.004443516 -0.050582662 -0.008046434 0.047438394 0.097126484 0.054542027 -0.09575522 0.032077655 -0.0064356118 -0.017282806 0.10803699 -0.03141004 0.020621967 -0.11400827 0.031478908 0.064203925 0.03610815 0.031370044 0.015660299 -0.09361568 0.081194215 0.10509138 0.18934305 -0.12759288 0.21089977 -0.07032597 0.066772 0.10695179 -0.047501266 0.19347847 0.12071911 0.010206919 -0.034330364 -0.13425888 -0.0010455817 -0.016956186 0.033020068 -0.1685328 0.19201516 -0.108172014 -0.020493375 0.10341384 0.09046132 0.13074829 -0.02238483 0.21400408 0.100314036 0.006487868 0.07116006 0.15809162 0.1298392 0.055996284 -0.04820621 0.02558229 -0.07213838
것 -0.06703116 0.020958928 0.036440413 -0.00084015785 0.0162707 -0.2150673 0.025933634 0.30536848 -0.12062732 -0.085345894 -0.07567514 -0.13649532 -0.059197612 0.09464145 0.045481663 -0.059919786 -0.018476201 -0.15376212 -0.06607698 -0.2312735 0.0070420126 0.025979685 0.11132028 -0.1059914 -0.025502611 0.040900744 -0.09925634 -0.10815287 -0.09196544 0.023681333 0.05746812 0.07278249 0.056793332 -0.107308544 -0.06307531 0.15617956 -0.025206495 -0.086136304 -0.09758229 -0.1476336 0.016526425 -0.14695565 -0.06536914 0.02852001 0.14270304 0.02011688 -0.07383958 -0.0353545 0.08769921 0.1007396 0.10485369 -0.09488156 0.06006167 0.0037520786 -0.0530167 0.06651107 -0.0061248224 -0.02978941 -0.08457389 0.075930595 0.067820534 0.016918035 0.053098593 -0.05379107 -0.07681038 0.10467205 0.10486466 0.20110783 -0.13759495 0.18970817 -0.036682177 0.034064043 0.092287585 -0.08413089 0.15831974 0.10637993 0.05140024 -0.0077561704 -0.07473442 0.009995439 -0.05582949 0.081470974 -0.1889218 0.1309868 -0.04426415 -0.058630306 0.11938421 0.14923564 0.095936194 0.025632331 0.22258899 0.09108784 -0.0034945928 -0.008797903 0.19934854 0.12982582 0.08265006 -0.07087007 0.0020191711 -0.066351034
좀 -0.038880654 -0.009560562 0.002508244 0.007021608 0.006169394 -0.22404908 0.058025524 0.2970821 -0.17323615 -0.041174244 -0.010913267 -0.13246232 -0.038766675 0.12746151 -0.0079289535 -0.06782091 0.008472499 -0.14565368 -0.06986619 -0.24012756 0.02648967 0.0032906372 0.045176227 -0.048485894 -0.024574107 0.0032830539 -0.031123944 -0.078973465 -0.10344163 0.051750857 0.13052586 0.07410144 0.11493111 -0.12659508 -0.061160296 0.16056152 0.014059959 -0.02520458 -0.03414548 -0.18805732 0.078487754 -0.14452717 -0.07208003 0.058265522 0.07153991 -0.012131826 -0.06105552 -0.0009313913 0.1001209 0.05764553 0.024303848 -0.0992731 0.10426953 -0.023671603 -0.010282629 0.09045519 -0.0037980687 0.05208867 -0.0419872 0.104405575 0.09105073 -0.016763331 0.058921542 -0.0616111 -0.14894076 0.059550967 0.10143554 0.20523101 -0.16198204 0.16062492 -0.051360924 0.053940747 0.09578486 -0.047827847 0.20973434 0.07315264 0.012904636 -0.009136565 -0.11715119 0.0329783 -0.010194232 0.09055818 -0.18109854 0.12565413 -0.114305995 -0.055748474 0.09545366 0.09479874 0.13573517 0.028593829 0.20056015 0.12171753 0.07371778 0.056910336 0.16859034 0.07080097 0.08364113 -0.042262584 0.07200707 -0.058590494
요 -0.007781778 0.04143624 0.0707846 -0.027530303 0.06639515 -0.19217701 -0.010909969 0.28769967 -0.18965364 -0.11117167 -0.03948656 -0.1091922 -0.02961494 0.12092386 0.052120432 -0.030789338 -0.031111589 -0.086900726 -0.06974977 -0.27856845 0.018934134 -0.015833052 0.093301795 -0.08427174 -0.029805217 0.004432729 -0.09209424 -0.081210196 -0.07650596 0.065635905 0.04074391 0.0019297518 0.098832995 -0.1329941 -0.034457624 0.19683133 -0.03650121 -0.022198647 -0.016418787 -0.15614855 0.044340104 -0.17092136 -0.043625753 0.07954827 0.12246557 -0.05848946 -0.043013938 -0.04634256 0.070185386 0.09727195 0.071401484 -0.0593199 0.033865336 0.04255252 -0.073233135 0.090964526 0.03337236 0.029959891 -0.04472295 0.048783604 0.06777031 0.06472764 0.0086336825 0.010080035 -0.16556722 0.1464588 0.112421155 0.20264287 -0.111757144 0.19543447 -0.06014278 0.04298485 0.09117195 -0.0631299 0.17707562 0.047519144 -0.0023746437 0.0449757 -0.056830496 0.04529204 -0.0734141 0.057995766 -0.19004145 0.18975034 -0.06911288 0.008757775 0.052955475 0.106897175 0.14240408 0.0076188585 0.1538363 0.080099784 0.042984992 -0.017154736 0.20524855 0.12560494 0.07166484 -0.10552405 -0.0009135796 -0.052615568
와 -0.026633264 0.03094513 0.006898005 0.044951446 0.005333853 -0.16882226 0.06873739 0.27016932 -0.18338345 -0.04989435 -0.08877325 -0.1790435 0.02705212 0.04723964 -0.0081734555 -0.07362533 0.017270038 -0.10394354 -0.05261573 -0.27390137 0.03051728 0.07286153 0.112299755 -0.060804926 -0.008702591 0.049345102 -0.052719317 -0.04196876 -0.1098138 0.0418347 0.07708996 0.0057365964 0.119501956 -0.11986907 -0.055205707 0.1628553 -0.0080431225 -0.091284975 -0.040396705 -0.17931618 0.0009869861 -0.15637308 -0.05286109 0.06622782 0.094125636 0.023104109 -0.105650246 -0.054518893 0.044700976 0.03915283 0.099268034 -0.12815775 0.024804588 -0.02937385 -0.011769873 0.08174363 0.0055333534 -0.01866293 -0.09781932 0.067338824 0.03875296 -0.006880315 -0.0032736447 -0.00936958 -0.16192847 0.10600854 0.0839885 0.21694902 -0.13964301 0.20560524 -0.07620019 0.039101824 0.12923414 -0.06603517 0.17245534 0.077316046 0.06988698 -0.040222965 -0.12351939 0.020954134 -0.055756595 0.09941342 -0.15840797 0.12350445 -0.11218257 -0.0757297 0.043227434 0.09373398 0.10284552 -0.019327205 0.18772312 0.09558049 0.04369878 0.047094714 0.22003576 0.07697299 0.115618706 -0.042169962 0.021006195 -0.07790896
그 -0.07120867 0.005321958 0.067213304 0.036731966 0.07501495 -0.22582933 0.056231886 0.2832025 -0.124110065 -0.109092586 -0.05430562 -0.1804509 -0.05158514 0.094547205 0.062109727 -0.02811209 -0.02393727 -0.10482025 -0.040589683 -0.22261448 -0.040068287 0.06220484 0.04268156 -0.09167578 -0.021598542 0.039785683 -0.090936914 -0.06874174 -0.12352809 0.017628325 0.11246966 0.04749662 0.11207746 -0.06552815 -0.09181886 0.1851391 0.029450078 -0.04730285 -0.03784707 -0.16742685 0.051054582 -0.13883236 -0.075810716 0.01548599 0.10675944 0.0067329505 -0.10107326 -0.0022164055 0.092362575 0.067935176 0.05285884 -0.08384069 0.086539224 0.033827495 -0.07720475 0.122609906 -0.0014857017 -0.019543225 -0.05461358 0.08672518 0.06270525 0.057090346 -0.0015443548 -0.04121507 -0.12558338 0.08615219 0.08834499 0.17548512 -0.16675161 0.18205816 -0.033434067 0.07213048 0.12063929 -0.06597294 0.21721242 0.08240972 0.058899425 -0.0020438428 -0.09592677 0.0031790682 -0.031787463 0.06575581 -0.14667577 0.18802252 -0.1027189 0.0053090737 0.08433053 0.11402288 0.114868164 -0.0435257 0.18176755 0.12769383 0.057146966 0.06213882 0.14520101 0.13030113 0.06033157 -0.062842056 0.06768978 -0.051344812
이다 -0.10567666 -0.023918564 0.04868997 -0.0032115008 -0.0145735955 -0.16630638 0.049630735 0.2771071 -0.10629837 -0.054101855 -0.1117989 -0.113699324 0.007341626 0.033393715 0.01119206 -0.045138337 -0.0039601144 -0.11388196 -0.059975695 -0.23951638 0.0181912 0.02103755 0.06660068 -0.048643574 -0.04870437 -0.0102981 0.000857519 -0.12239835 -0.13099109 0.027289435 0.037769098 0.045045603 0.12855904 -0.09531256 -0.012575858 0.15977931 -0.026312752 -0.076792374 -0.057084408 -0.1017942 0.0767113 -0.09615138 -0.1088439 -0.008023686 0.13264991 0.0044548055 -0.031234827 -0.027628096 0.12732607 0.008234288 0.12114753 -0.1302485 0.052147884 0.05630941 -0.108903594 0.11367562 -0.041707393 -0.03340106 -0.06688579 0.07692308 0.029764507 0.07561816 -0.020537252 -0.016032055 -0.056210116 0.10780913 0.04601818 0.18699723 -0.158984 0.1692083 -0.021964291 0.11775083 0.14328085 -0.09651721 0.24407203 0.051065024 0.07604169 -0.047701288 -0.14788982 0.008064091 -0.10205521 0.03159487 -0.14220041 0.14715186 -0.1314318 -0.06696283 0.02960593 0.1119814 0.15393358 -0.011167146 0.2393376 0.08854495 0.08364337 0.06538683 0.21764356 0.09387805 0.08308867 -0.0596252 -0.025598222 0.016923519
사람 -0.069196865 0.06279993 0.054594442 0.01677584 0.03653476 -0.23648447 0.044500925 0.2744358 -0.1841501 -0.095121406 -0.062182773 -0.17726316 -0.00092891644 0.09463923 0.04417746 -0.07762032 -0.024936024 -0.09286819 0.0025183654 -0.23322761 0.010407171 -0.004061558 0.10015615 -0.0963452 -0.06105029 0.07994252 -0.071660064 -0.10497919 -0.13214931 0.06359861 0.076867916 0.058366925 0.08205804 -0.07305206 -0.06315398 0.12540843 -0.0036079115 -0.029860979 -0.049157016 -0.17472942 0.06713784 -0.10940448 -0.04402003 0.036883388 0.060198326 -0.02670826 -0.04817336 -0.058481056 0.12393496 0.02482716 0.026457928 -0.10554121 0.091158494 -0.015380091 -0.01835421 0.05161333 0.014943787 0.02408873 -0.08396755 0.11013912 0.071991704 0.027814917 0.04602614 0.008274105 -0.10154112 0.14026716 0.08805817 0.13862996 -0.1547105 0.16730198 -0.073879935 0.069546446 0.13634516 -0.092674926 0.21632692 0.10677034 0.026038216 0.0061339163 -0.07918271 -0.011871884 -0.03727561 0.09208449 -0.16235475 0.12266185 -0.114662796 -0.067369595 0.097222805 0.1445063 0.1580946 -0.01743467 0.19326515 0.13067947 -0.01055567 -0.011247256 0.1957132 0.061153717 0.07621031 -0.09392237 0.0658492 -0.05617726
재미 -0.0142170815 0.032471772 0.02143141 -0.012743623 0.050921172 -0.22257215 0.071730524 0.30645004 -0.12803216 -0.11363643 -0.081192456 -0.15998977 -0.023400767 0.06305911 0.06257061 -0.023702871 -0.018049905 -0.10468571 -0.0046286085 -0.2510018 0.029947573 0.021363312 0.0359101 -0.07118371 -0.06605145 0.087376304 -0.10022084 -0.07370051 -0.13587125 0.05402888 0.115145266 -0.00027058565 0.06424349 -0.08939034 -0.052748457 0.19276425 0.0046911933 -0.06985585 -0.093019895 -0.13196371 0.0025944584 -0.13024265 -0.090928994 0.006990249 0.13417085 -0.015205236 -0.11210719 -0.0739957 0.08565333 0.031594753 0.081328526 -0.06993022 0.08033889 -0.008962513 -0.02065623 0.055082176 0.034380924 0.0065924055 -0.09336764 0.0870305 0.03764773 0.010876432 0.014499248 -0.049022138 -0.12057651 0.07815123 0.115428865 0.13662654 -0.15788683 0.13615133 -0.08824897 0.072763145 0.0685391 -0.09611068 0.20855205 0.08539602 0.04260852 0.03972076 -0.14908583 0.044395864 -0.08875747 0.08513724 -0.1164218 0.19826157 -0.10969542 -0.014470559 0.047816075 0.12025712 0.10805163 -0.04924781 0.21257082 0.14129402 0.0135512175 -0.0038560755 0.19610116 0.081442796 0.05264057 -0.09695857 0.031759705 -0.0047321706
ㅋㅋ -0.09007696 0.065223634 0.07472524 -0.02213557 0.035674743 -0.20543593 0.05225821 0.25865388 -0.15431938 -0.12167549 -0.022471948 -0.20426776 -0.060836792 0.09252704 0.040182635 -0.04980302 0.0024747215 -0.09928244 -0.015769834 -0.21775067 -0.025863823 -0.00881216 0.02512116 -0.026181024 -0.018021846 0.014781775 -0.027606405 -0.021341631 -0.08034601 0.0052119903 0.065565534 0.026095267 0.047680825 -0.06594063 -0.04074518 0.13550882 0.04571293 -0.10405258 -0.024484877 -0.1704655 0.044296514 -0.15812942 -0.05768872 0.077117994 0.093741216 -0.035725735 -0.11011863 -0.014640727 0.10273333 0.09902767 0.041015707 -0.1317184 0.098206565 -0.0067648483 -0.033157837 0.1326231 -0.01886309 0.01802677 -0.1013808 0.0349135 0.020803086 0.026779 -0.011967262 -0.028236963 -0.12839481 0.13365741 0.09853223 0.20349473 -0.116167895 0.15594223 -0.06826922 0.12150745 0.1370637 -0.11475758 0.2195243 0.12931289 0.07461697 -0.0386644 -0.113459244 0.021251991 -0.040420417 0.04557507 -0.17090198 0.18669939 -0.037657917 -0.03090025 0.050716657 0.10026225 0.10158457 0.009418351 0.19012147 0.104863614 -0.011639765 0.021847581 0.20526573 0.12928951 0.11184106 -0.08891704 0.08304187 -0.03827391
없는 -0.0503023 0.067855105 0.0026920869 0.04383827 0.1039998 -0.16485664 0.058440924 0.28079373 -0.14990735 -0.12591363 -0.04280968 -0.14720741 -0.05914652 0.09464053 0.060027942 -0.092858225 0.015466424 -0.0613251 -0.078841865 -0.22689098 -0.06043548 -0.02261892 0.106573924 -0.109194145 -0.03550843 -0.00791981 -0.10618313 -0.1050834 -0.1134386 0.04756815 0.039178062 -0.015815515 0.06149039 -0.09788483 -0.10415317 0.13544351 0.03250434 -0.045724567 -0.013892922 -0.11621605 0.029888488 -0.11979359 -0.018094392 0.04763161 0.10859862 -0.0029949637 -0.122943595 0.0034271455 0.109678335 0.06528167 0.11707365 -0.11622295 0.083867915 -0.03203296 -0.10796753 0.10389041 0.028805131 0.046382237 -0.13397743 0.09175592 0.061242346 0.051330265 0.020560589 0.013311499 -0.06686011 0.043967124 0.029628202 0.21382144 -0.1363034 0.11248272 -0.0665397 0.080112316 0.15190029 -0.078771956 0.18136643 0.040819444 -0.01810593 0.010209001 -0.103996344 -0.031380143 -0.049811553 -0.0030138243 -0.15848657 0.17614941 -0.06655341 0.020995 0.1173036 0.10978496 0.15601438 0.025155876 0.2356975 0.16904637 0.06271232 0.057122823 0.2143517 0.08631195 0.050951883 -0.017487658 0.044391643 -0.070113614
없다 -0.058698755 0.0009994361 0.08721796 0.02012596 0.06321506 -0.14658752 0.077515 0.21790092 -0.16387872 -0.09124101 -0.06958369 -0.1930449 -0.020421362 0.03815088 0.07518228 -0.06321762 -0.031044954 -0.14463606 -0.043208335 -0.28570542 -0.0043886127 0.052272428 0.04462901 -0.02159361 -0.035465363 0.0025814404 -0.07120381 -0.07558807 -0.14747654 -0.014499387 0.06339498 0.024427298 0.10221859 -0.12291713 -0.08873479 0.15948576 0.00092292443 -0.044561785 -0.061671413 -0.11552194 0.07291584 -0.17212047 -0.048862055 0.066446185 0.090446115 0.021967039 -0.09268295 -0.053521868 0.03583099 0.11078844 0.009459445 -0.09306293 0.0574997 -0.009765365 -0.002707965 0.05100492 -0.040233225 0.056315385 -0.11986943 0.113629915 0.025078202 0.055610348 0.02109722 -0.03808908 -0.1466294 0.06105478 0.121364176 0.19596367 -0.12413502 0.1941256 -0.0198789 0.089774944 0.109333836 -0.11443651 0.22701496 0.04089255 0.012584605 0.0093644755 -0.06930515 -0.031846497 -0.040706206 0.08228686 -0.18055543 0.19365366 -0.09350825 0.021630902 0.041360863 0.14626907 0.16587837 -0.057475492 0.1744449 0.06972157 0.07192466 0.076157406 0.13128656 0.09599525 0.072836176 -0.10985729 0.04113007 -0.089434095
그냥 -0.03893436 -0.01378119 0.07224743 0.042680047 0.027411839 -0.19985698 -0.018279301 0.2677258 -0.11491531 -0.025108304 -0.032247137 -0.15998223 0.0025047746 0.12449541 0.07422135 -0.00435313 -0.045732632 -0.1447041 0.016376859 -0.27425 0.008117396 0.066372804 0.042001065 -0.023536671 -0.06910093 0.07313103 -0.02368144 -0.0407972 -0.15463525 0.08445792 0.12784363 0.02440998 0.09788886 -0.048504934 -0.071653746 0.18192513 -0.012727735 -0.06850088 -0.058099966 -0.15873097 0.028333861 -0.17247236 -0.049842544 0.084472716 0.118475296 0.022522515 -0.088488616 -0.0033916982 0.038887206 0.034731 0.11085985 -0.040997893 0.03397139 -0.017330736 -0.010833008 0.100406155 0.036742993 -0.027753592 -0.082788035 0.056754787 0.043937765 0.036720872 -0.014207902 0.0056948666 -0.12219317 0.136689 0.07998913 0.21039785 -0.12861668 0.18783897 -0.07923788 0.019537186 0.09179658 -0.07650001 0.2326217 0.1069338 -0.0020970777 0.04152686 -0.09128155 -0.036175843 -0.020048833 0.03964637 -0.18436973 0.19002579 -0.027614618 0.019279076 0.0748158 0.15377206 0.14665303 -0.04813525 0.22129214 0.08881988 -0.022048665 0.07195813 0.13293698 0.1360008 0.039505355 -0.01993556 0.0034892105 -0.017602058
내용 -0.019561404 0.046618275 0.034426272 -0.016670285 0.0025236455 -0.17667542 0.069676 0.2413278 -0.11767504 -0.051443834 -0.08866976 -0.14650974 -0.04587804 0.06739467 0.02949813 -0.07812792 -0.015520094 -0.14268853 -0.056683213 -0.28565603 0.03100907 0.061812777 0.06442181 -0.07580058 -0.003605742 0.048892006 -0.09778068 -0.09419963 -0.11515815 0.07125241 0.10246376 0.075628385 0.10861958 -0.08838874 -0.03430089 0.20136125 0.042782642 -0.029234504 -0.092972614 -0.13371064 0.004715089 -0.17130227 -0.10790426 0.050477292 0.100605175 -0.03751039 -0.0463439 6.557813e-05 0.0994503 0.09796907 0.0446664 -0.10895735 0.081334434 0.0036412324 -0.08347696 0.108122416 -0.012867814 -0.010684839 -0.07277585 0.09524697 0.07494434 0.02694112 0.060917735 -0.007431837 -0.089427486 0.09683407 0.10008682 0.19981232 -0.17526378 0.19583692 -0.03831307 0.09919191 0.09610416 -0.08110259 0.16909608 0.07751319 0.018964466 -0.018283924 -0.09961741 0.04750977 -0.03223786 0.023105785 -0.17647856 0.14377089 -0.057686035 -0.06633997 0.10474328 0.13482432 0.11528327 0.025802398 0.22048804 0.11841131 0.051978644 -0.0075446847 0.13831018 0.0847788 0.1272117 -0.062120356 0.06304826 -0.0680442
나 -0.032993518 0.031220293 0.037995417 -0.014272272 0.07044515 -0.23689592 0.06475813 0.28442025 -0.15124731 -0.100136295 -0.09383023 -0.18679865 -0.0474714 0.10119149 -0.001413597 -0.05451769 -0.05080331 -0.12716061 -0.029141724 -0.29083127 0.010561751 0.080467835 0.08739131 -0.052019168 -0.055328898 0.035361126 -0.04659277 -0.052229553 -0.065753505 0.03207686 0.12490046 0.06588741 0.09541016 -0.045907676 -0.09396217 0.13654672 0.05021165 -0.015539417 -0.035513554 -0.16555199 0.07783034 -0.12186486 -0.07409285 0.08852612 0.12308082 0.009428729 -0.06575728 -0.080908336 0.06159016 0.07772523 0.028032074 -0.03951525 0.10498311 -0.034891516 -0.08327892 0.056283846 -0.0027491448 -0.0020516221 -0.091019504 0.051449295 0.06703933 0.08128848 0.00040712522 -0.06619413 -0.091544256 0.058137402 0.12682168 0.1853887 -0.17530479 0.12368846 -0.09210402 0.08560189 0.1143701 -0.052470755 0.18730803 0.09299328 0.04527935 -0.006980819 -0.1462568 0.0106616495 -0.031557426 0.03530256 -0.15290548 0.138297 -0.030727446 -0.04547912 0.13051859 0.09469104 0.06745155 -0.04727065 0.15642898 0.12068612 0.061232224 0.04142679 0.2207882 0.10116406 0.11830209 -0.07121294 0.026062647 -0.004932033
평점 -0.043870132 0.08692305 -0.013859452 -0.059083037 0.039413027 -0.20228598 0.023753745 0.25150487 -0.17432024 -0.13305163 0.004297226 -0.1761456 -0.03547724 0.0727176 0.01779378 -0.11286541 -0.010790179 -0.119053036 0.032294992 -0.3048422 -0.04030631 0.014854332 0.08448707 -0.104842626 -0.06625549 -0.012585548 -0.021429293 -0.125411 -0.13930659 0.03977243 0.09842931 -0.034933396 0.13725936 -0.10192936 -0.0647344 0.10325159 -0.04569504 -0.03735698 -0.02535272 -0.12210486 0.07578245 -0.18829405 -0.08279832 0.019946478 0.088998094 0.021410098 -0.0560556 -0.0815393 0.10182305 0.10787739 0.019679407 -0.060632166 0.034765255 0.073467664 -0.026311697 0.1077424 -0.0045878524 -0.05119709 -0.022916298 0.05246364 0.10020544 0.051244784 -0.029518384 -0.022670764 -0.09503228 0.080316156 0.15524322 0.13541035 -0.18206714 0.19346012 -0.06523331 0.025007395 0.115413 -0.031246735 0.1502711 0.05787691 -0.019094754 0.013980218 -0.13433592 0.0747634 -0.0479708 0.06567223 -0.16669412 0.20199291 -0.07627079 -0.08468967 0.028326971 0.12358927 0.17896603 0.009590567 0.14799467 0.06661505 -0.032059398 0.05627681 0.10412792 0.11666646 0.100609444 -0.07784534 -0.029897178 -0.0005711167
중 -0.05792396 -0.018551039 0.0067950934 0.045437712 0.05236188 -0.22916232 0.034712028 0.2825455 -0.18603916 -0.1101801 -0.056941684 -0.20230412 -0.015765792 0.09348632 0.06586929 -0.04341799 0.007454483 -0.08592577 -0.046657506 -0.21720567 -0.008640791 0.022755183 0.016213201 -0.062398445 0.003832517 0.050323203 -0.09947075 -0.07901107 -0.14518109 0.06638692 0.057155196 0.060225017 0.054352917 -0.119647436 -0.104130216 0.1812832 -0.030875802 -0.09391858 -0.09004759 -0.16587806 0.016859442 -0.1324723 -0.042690445 0.033177663 0.07366601 -0.002541868 -0.03930772 -0.056838162 0.055001415 0.09006691 0.09133941 -0.11975244 0.103999205 -0.032307543 -0.090452984 0.064401224 0.008933552 0.009125688 -0.06630377 0.10073487 0.070138805 0.011376468 -0.0056646257 -0.05960164 -0.11550831 0.14597571 0.053062197 0.18922247 -0.11268813 0.1504638 -0.07878158 0.04692139 0.07690304 -0.10288489 0.21765342 0.050703723 0.013694755 0.022159856 -0.101392955 -0.021125687 -0.077379815 0.070038676 -0.13143459 0.14341891 -0.07678643 -0.015173684 0.08651312 0.10732565 0.15334381 -0.047836214 0.21604194 0.066747956 0.019991651 0.062128656 0.15502174 0.12626275 0.114545934 -0.10992597 0.038638625 -0.06222885
드라마 -0.09672073 0.024520183 0.07405057 0.04506533 0.019386781 -0.20017026 0.006520509 0.26210493 -0.1270217 -0.12606128 -0.040313847 -0.19547208 -0.017232882 0.10587714 0.00053114333 -0.046573736 -0.011215034 -0.15188603 -0.03747012 -0.22737181 -0.051434767 -0.0028242818 0.061308786 -0.025167093 -0.019414447 0.08929092 -0.09679704 -0.019041747 -0.14092642 0.0073055667 0.04945373 0.04212804 0.06594646 -0.051078144 -0.06885624 0.17440742 0.038285032 -0.10596662 -0.064058386 -0.16955617 -0.0075768447 -0.1217037 -0.061167818 0.02639259 0.089375935 -0.045290172 -0.08235408 -0.024065195 0.116380334 0.100630045 0.04378233 -0.06479778 0.049953777 -0.0073749884 -0.070847005 0.059234437 0.018146997 -0.029449068 -0.11948202 0.042763546 0.08359633 0.036735732 0.052271973 0.020946432 -0.14520611 0.07560238 0.12852755 0.19689955 -0.11036483 0.21341221 0.0014307803 0.060654443 0.10518317 -0.04141622 0.23107328 0.13636735 -0.0122045595 -0.02253214 -0.077508084 0.019890849 -0.050393198 0.0888165 -0.111027814 0.116856284 -0.0833521 -0.068271 0.11067065 0.13107286 0.11306527 -0.00024298842 0.21975933 0.15376545 0.061924964 0.04526693 0.17874585 0.13496767 0.09305529 -0.071121104 -0.008286911 -0.029519908
!! -0.10100656 0.06094431 0.010327764 -0.006907288 0.04673266 -0.19104981 -0.011099381 0.26612067 -0.16630234 -0.11980718 -0.02942885 -0.15009011 0.01651843 0.042373195 0.027195204 -0.05012123 0.029329304 -0.15579073 0.0066204495 -0.28555158 -0.0492328 0.029371496 0.046026614 -0.08092841 -0.054112166 0.06172239 -0.10666361 -0.05421476 -0.08964242 0.03443587 0.08107928 0.07105328 0.027549502 -0.12927635 -0.039957646 0.20205659 -0.031270683 -0.104443036 -0.054807495 -0.18589999 0.04534955 -0.08412088 -0.10165231 0.00032772883 0.14169864 -0.014543345 -0.08299199 -0.04362914 0.030115644 0.037723493 0.037838668 -0.0770618 0.065569125 0.0541717 -0.014739627 0.07894863 -0.051138014 0.021861475 -0.1108163 0.10926024 0.06476148 0.021003095 0.05971481 -0.037979975 -0.1286384 0.09137402 0.1291109 0.19467583 -0.11919304 0.18150856 -0.055488437 0.118898235 0.059202235 -0.08164641 0.15292048 0.12938893 0.009837712 -0.01096511 -0.060492937 -0.03568674 -0.065670215 0.06615478 -0.16933276 0.19239233 -0.062377173 -0.0531618 0.1008114 0.15530026 0.12564914 0.025380127 0.14003196 0.09038474 0.08355184 0.056913417 0.17289136 0.07344101 0.10600453 -0.05624134 0.08064197 -0.038815074
생각 -0.019131944 0.0043009454 0.008853058 -0.005470197 0.059086934 -0.20279065 0.06539277 0.22495338 -0.18346226 -0.043346953 -0.024144273 -0.17363776 -0.03611174 0.069339186 0.026225852 -0.009130171 0.004545177 -0.12072539 -0.041908063 -0.26776698 -0.052257936 0.056917593 0.024869693 -0.07988114 -0.06154064 0.08489183 -0.032389566 -0.06884127 -0.10111569 0.027530858 0.1356086 0.020898027 0.10332546 -0.10637687 -0.024793588 0.20829885 0.039059553 -0.0688543 -0.06297066 -0.18733855 0.08047011 -0.18130626 -0.105231896 0.06329879 0.08957201 0.025049247 -0.10504088 0.010683361 0.09313394 0.027268386 0.08123702 -0.10556632 0.09453285 0.046348058 -0.09556855 0.123470195 0.023493463 0.039202582 -0.11542189 0.03773513 0.011303334 0.050964188 0.009292294 0.0040558022 -0.093631245 0.1361089 0.10405042 0.16964117 -0.13038583 0.18809646 -0.08059357 0.048487432 0.09748547 -0.048236083 0.19355753 0.042880144 0.028086271 0.033726674 -0.0754796 0.03097317 -0.074257635 0.034166515 -0.15925933 0.1284994 -0.11540307 -0.03196495 0.090454064 0.14472175 0.14399178 0.026705395 0.1590793 0.16045138 0.019491373 0.03507829 0.15728663 0.07968223 0.08517432 -0.11020855 0.080503345 -0.02166281
또 -0.06458954 0.03661883 0.07440461 -0.02076467 0.059704464 -0.18057509 0.0497325 0.24142346 -0.18037388 -0.050179534 -0.057187635 -0.18428312 -0.015385103 0.053909205 0.058174398 -0.074945785 -0.0059274384 -0.10766828 -0.043938614 -0.25936648 0.023456356 0.033040076 0.02300213 -0.06392127 -0.06789148 0.027682675 -0.036033724 -0.044413917 -0.13770095 0.044024 0.11047079 0.0013784346 0.06212572 -0.09699285 -0.10279382 0.16680512 0.038904887 -0.05250332 -0.04279165 -0.14461173 0.032427814 -0.16388783 -0.07284066 0.065363444 0.10918956 -0.00836725 -0.031601034 -0.016438114 0.046251588 0.09573782 0.101037525 -0.11857201 0.094403654 -0.017696586 -0.05371063 0.10856685 -0.025045672 -0.026377955 -0.111959785 0.021689048 0.016756408 0.067565285 0.03777724 -0.057991818 -0.07375769 0.1260469 0.12253769 0.21068929 -0.16771965 0.15420246 -0.031573467 0.08094695 0.119625814 -0.10064449 0.20524499 0.12805825 -0.010895976 0.037029684 -0.08428798 -0.0030986299 -0.058447257 0.01275203 -0.17194147 0.17109278 -0.08467518 0.0166202 0.041904606 0.08610046 0.14861427 0.022781404 0.19617282 0.1434284 0.060198553 0.0041343626 0.20657228 0.064793676 0.073144324 -0.0976822 0.064904496 -0.058324695
이런 -0.041823134 0.021112949 0.037317757 -0.027096514 0.0130400285 -0.21010594 0.040226337 0.2654723 -0.15757644 -0.067244805 -0.08197004 -0.103821084 -0.022682764 0.047749434 0.017647924 -0.009168328 -0.00550475 -0.13717581 -0.06718091 -0.28240204 -0.025622359 0.06501375 0.02598325 -0.05733407 -0.027492722 0.062016938 -0.10091191 -0.022524303 -0.132585 0.06424761 0.039991263 0.06093369 0.038372185 -0.1066784 -0.072645605 0.14405762 0.0066903937 -0.06485139 -0.03166525 -0.1577211 0.014078656 -0.1722188 -0.030730953 0.061985806 0.14572817 0.015666964 -0.09307217 0.013209002 0.04534776 0.08206945 0.044508833 -0.0800038 0.08440935 0.001919314 -0.07675565 0.08294256 0.0032206299 0.04250367 -0.1138397 0.0921747 0.028094912 -0.01370823 -0.0042724437 -0.0102207195 -0.07031607 0.13879041 0.1390686 0.2100854 -0.1481754 0.15898232 0.0019290071 0.10753334 0.13375288 -0.03368275 0.20030347 0.10280105 -0.013008831 0.04144101 -0.055359878 -0.01959604 -0.047564313 0.09849814 -0.12517618 0.19039978 -0.03286885 -0.037034586 0.12336873 0.1504027 0.117625326 -0.010321853 0.23579206 0.14614862 -0.0019157018 0.0107333595 0.15547554 0.11403431 0.09427276 -0.11927489 0.04972201 0.007128619
완전 -0.04542638 0.051601812 0.054823633 0.048304264 0.09374781 -0.17433704 0.023177393 0.28034154 -0.18155181 -0.032256987 -0.07483886 -0.09691917 -0.07180694 0.06966415 0.075808994 -0.07199823 -0.010187343 -0.083798625 0.026102314 -0.25422704 -0.04609953 0.08207319 0.01167774 -0.057601117 0.0024345776 -0.00096875994 -0.09083287 -0.11482513 -0.119880445 0.06652079 0.04352339 0.01954599 0.12686598 -0.11490451 -0.047964733 0.18351203 -0.010725607 -0.09525009 -0.009027452 -0.16182043 0.0845678 -0.15407856 -0.05791035 0.069218084 0.102235004 0.013368883 -0.09985794 0.015791874 0.07119124 0.0410845 0.09184614 -0.02534142 0.034891225 0.02064546 -0.030010443 0.07716436 0.004113211 0.05845043 -0.0395206 0.030759996 0.030799003 0.07772368 0.02265752 -0.07305873 -0.11911591 0.060449548 0.095545 0.17912652 -0.15919746 0.14502807 0.0072445916 0.09900954 0.11518522 -0.06038082 0.23800078 0.060272325 0.062443104 -0.0018047993 -0.14583348 -0.03797259 -0.062996976 0.09917136 -0.13362044 0.10345171 -0.066932626 -0.049834777 0.05623828 0.16644166 0.1597747 -0.0114009585 0.199759 0.119773135 -0.021195024 0.04465443 0.21453042 0.11936204 0.102119945 -0.09367895 0.050984025 -0.08354209
있는 -0.038597804 0.043926604 0.042483717 6.088598e-05 0.057842854 -0.18530585 0.0460377 0.30978927 -0.12507209 -0.07307248 -0.06810557 -0.18631089 -0.06537723 0.068918526 0.0483745 -0.013543689 0.0025573906 -0.13648273 -0.009038372 -0.2782384 -0.013362741 0.06956315 0.105357036 -0.06707272 -0.056052934 0.06096689 -0.012022715 -0.02286742 -0.13058048 0.07406362 0.13760528 -0.010340335 0.12728035 -0.090455055 -0.09508811 0.18486011 0.054397624 -0.10321016 -0.022906192 -0.18273412 -0.003832248 -0.11576899 -0.097783804 0.06083542 0.13646837 0.034410715 -0.040753685 -0.07639788 0.098861486 0.025667595 0.061053813 -0.035767697 0.04035757 0.037903987 -0.08412354 0.053743757 0.040064424 0.024759617 -0.049852517 0.08389715 0.05585463 0.046898533 -0.0157723 0.011547292 -0.139367 0.12427012 0.0664735 0.18303409 -0.11601339 0.1637286 -0.08055096 0.046264924 0.054520342 -0.02339198 0.17437184 0.08551778 -0.015632723 -0.019662252 -0.12836382 0.030435624 -0.026372442 0.07219703 -0.0999029 0.16606069 -0.026344327 0.008956643 0.094830684 0.13316055 0.09270739 -0.022648554 0.2163525 0.07882747 0.043777797 -0.008655622 0.22489263 0.09799135 0.09545254 -0.10022066 0.069334805 -0.07787152
배우 -0.09991564 0.06790339 0.020345377 -0.0017014437 0.07250684 -0.15432145 0.07229364 0.28957242 -0.10002128 -0.12671886 -0.018554432 -0.09227914 -0.04130542 0.087274075 0.0033856537 -0.06725164 0.053146493 -0.10813381 -0.0050279764 -0.2741308 0.024232632 0.004469562 0.03063827 -0.04938409 0.029913237 0.003094927 -0.03579067 -0.06860275 -0.15474443 0.010008167 0.037346635 0.067182556 0.061568912 -0.115959935 -0.058394946 0.18377143 0.06801401 -0.12132975 -0.05382952 -0.1487568 0.018275727 -0.13870125 -0.022122897 0.024982743 0.15042691 -0.007961844 -0.07243201 0.012041382 0.11856224 0.06612104 0.05549309 -0.040690992 0.03805483 0.0440564 -0.051645696 0.051942576 0.039406765 -0.016013948 -0.06682236 0.022737378 0.06361832 0.05958859 0.055765916 -0.06632968 -0.14468643 0.13722448 0.105874956 0.17249785 -0.16482471 0.15596306 -0.09437681 0.077912 0.06919694 -0.061221786 0.20932359 0.09640059 -0.014788972 0.0069163963 -0.13814785 -0.008807848 -0.03969808 0.096759446 -0.17765006 0.16053753 -0.022890529 0.030645851 0.11269532 0.072027765 0.14452298 0.042561315 0.20181149 0.12621994 0.022553042 0.051014513 0.190337 0.14525333 0.06144925 -0.12309662 0.075526774 -0.076393776
게 -0.059887473 0.038538024 0.033333965 -0.02276277 0.047325183 -0.24379718 0.0441584 0.22082052 -0.17038687 -0.04940456 -0.040424954 -0.12403296 -0.010469313 0.020663578 0.08833141 -0.06948121 -0.013322175 -0.060665913 -0.024109393 -0.22273031 0.0058316165 0.03964733 0.10544877 -0.002018624 -0.029508654 0.019680953 -0.02681246 -0.113859035 -0.05980807 0.051301 0.12493584 0.051109783 0.06851483 -0.07986957 -0.09468729 0.2129919 0.041318607 -0.03939779 -0.08498074 -0.19476597 0.08301016 -0.11653137 -0.09702918 -0.01954236 0.068621345 -0.0020216452 -0.12318002 -0.029286025 0.094874226 0.0015912151 0.059323017 -0.11559587 0.038268987 0.004722647 -0.114701174 0.06478268 -0.043422084 -0.038111556 -0.071088485 0.078019805 0.10560572 0.08127408 -0.015867503 -0.07609111 -0.061053533 0.12784514 0.13120481 0.14759415 -0.16140205 0.13629638 -0.09251194 0.10725238 0.07446331 -0.01204322 0.14757915 0.14317603 -0.0007850017 0.057892352 -0.13272892 -0.030305354 -0.0018550031 -0.011234942 -0.19472389 0.17721297 -0.1316457 0.0047300346 0.0986296 0.071876414 0.14030051 -0.0014728669 0.23120531 0.12936778 -0.0009139343 0.012846599 0.2091402 0.0515274 0.14293309 -0.09162322 0.007883646 -0.06805192
때 -0.047770668 -0.011883712 0.06091614 -0.015942292 0.08927154 -0.2246482 0.005211879 0.29019397 -0.10997347 -0.07093077 -0.06565199 -0.14778063 -0.058334265 0.07167882 0.008535659 -0.044019245 -0.026547711 -0.1510372 -0.055533204 -0.24407919 0.0021156652 0.06549061 0.07797881 -0.045084067 -0.009370199 0.063887745 -0.085571244 -0.061362594 -0.124978 0.06372069 0.06476225 0.0350467 0.10387206 -0.114856064 -0.107189246 0.19842607 0.0072785225 -0.069274746 -0.084093936 -0.118768975 0.040111832 -0.14081165 -0.08032277 0.044006154 0.13051026 -0.053244848 -0.061317448 -0.057141267 0.12621744 0.088753425 0.042486977 -0.09199809 0.044190325 0.053747594 -0.017772255 0.10686956 0.04269093 -0.010474573 -0.07547635 0.048668727 0.0130540095 0.011349641 0.021105213 -0.04674652 -0.1425668 0.10651796 0.0976763 0.14699799 -0.11317368 0.18881768 -0.08611363 0.07225319 0.073912196 -0.040406987 0.19833896 0.12757559 0.05190112 -0.01484695 -0.14922018 -0.009079471 -0.017839609 0.051053856 -0.15355085 0.16477653 -0.11363277 -0.010825359 0.04895079 0.16893134 0.100119255 0.023338094 0.18861324 0.11346735 0.02464684 0.03506958 0.19438338 0.10966729 0.09185647 -0.045901306 0.012997722 -0.07813737
주인공 -0.09369614 0.058275145 0.03603276 -0.018077051 0.06681457 -0.23576356 0.053455714 0.31582075 -0.117973626 -0.096579365 -0.045293864 -0.14052668 0.021202894 0.0764901 0.033224817 -0.07031147 -0.01371497 -0.112536624 -0.018704733 -0.2903889 0.0083247265 0.005127285 0.047482114 -0.10613517 0.0027825972 0.062162187 -0.07292547 -0.033248633 -0.11499878 -0.0028092861 0.060377825 0.019072535 0.05316045 -0.06148427 -0.048057135 0.18158954 0.007529083 -0.10238734 -0.030800048 -0.17653996 0.027238388 -0.17264274 -0.087336294 -0.0012687054 0.11905607 -0.043309852 -0.042331222 -0.063749194 0.060860153 0.07018057 0.03198771 -0.06346468 0.05123373 0.019703224 -0.023927184 0.11173813 -0.0013303926 0.043365963 -0.08760298 0.09443724 0.078769356 -0.005114042 0.03586468 -0.061607193 -0.12651485 0.13996187 0.08580679 0.16213965 -0.12945276 0.21240802 -0.014455555 0.050106965 0.13788323 -0.040568795 0.17913206 0.08817445 0.028721226 -0.038868405 -0.11960954 0.05901688 -0.06779879 0.022605943 -0.17266755 0.12149805 -0.06921293 -0.0036370673 0.08762056 0.11181175 0.17452915 -0.052736167 0.17791136 0.07984029 0.07652187 0.024420287 0.16007641 0.0682094 0.12907608 -0.09208909 0.015835576 -0.02770557
느낌 -0.09864746 0.08007256 0.08045829 -0.01776476 0.03063837 -0.19616054 -0.010419816 0.29810733 -0.12793657 -0.05311573 -0.102815494 -0.16525292 -0.051865075 0.1198165 0.07961604 -0.05677506 -0.040958542 -0.09309976 -0.030464105 -0.2573021 -0.04405789 0.024667164 0.05504733 -0.029878298 -0.06844844 0.024908528 -0.07110895 -0.083410576 -0.095348224 0.039198887 0.08213804 -0.008441767 0.03561216 -0.085724466 -0.077039815 0.12571816 0.048999637 -0.032398656 -0.024674326 -0.17281832 0.036439333 -0.10979375 -0.11385381 0.0028897913 0.06409767 0.010649493 -0.12228294 -0.02394366 0.12810232 0.07860408 0.016630078 -0.045496102 0.09735008 -0.02543007 -0.02887927 0.14177746 0.033005897 -0.01366606 -0.056203026 0.04614001 0.013642682 0.048206903 0.00054907793 -0.030105589 -0.14988701 0.066895366 0.08867741 0.19129601 -0.13676977 0.22158045 -0.02507472 0.029003633 0.061852813 -0.08343937 0.19109438 0.06079163 0.076462045 0.0243508 -0.14910777 0.04730767 -0.064105414 0.018806381 -0.15378094 0.19958322 -0.1052117 -0.04913123 0.072764665 0.15424289 0.16240557 -0.049935825 0.15408546 0.12152921 0.05031665 0.046544008 0.20243885 0.1031645 0.08804182 -0.059587616 0.039465304 -0.016181143
감독 -0.051418588 0.0783106 0.021658745 0.017782817 0.06339302 -0.22871298 0.087841295 0.2940425 -0.11484881 -0.086613946 0.0029631197 -0.13169354 -0.026589211 0.10564575 0.056427363 -0.0076649957 0.007760173 -0.1020308 -0.041594546 -0.28601855 -0.058857683 0.015757088 0.049960822 -0.049493603 -0.029712893 0.049329232 -0.029518293 -0.09973413 -0.080837764 0.0746191 0.12363526 0.043626726 0.079210185 -0.08364743 -0.10821384 0.13132069 0.022206267 -0.06811823 -0.03228427 -0.17440453 0.063213296 -0.1615086 -0.038288374 0.020656765 0.07584508 -0.00031222444 -0.072899856 -0.045757737 0.063268796 0.11204927 0.010265461 -0.054977294 0.04652905 0.07153058 -0.0313806 0.103655785 -0.016238885 0.0011811006 -0.1146732 0.054418568 0.08685514 -0.023560654 0.043782867 0.0016207325 -0.07337804 0.078910366 0.12653154 0.12106925 -0.13488531 0.21894962 -0.018433228 0.046497498 0.08736508 -0.11595482 0.19731987 0.11687895 -0.011390438 0.03324792 -0.12810811 0.04502908 -0.023795703 0.06736444 -0.15531057 0.1024023 -0.107212745 -0.025741745 0.023781892 0.17521623 0.14678502 -0.014829743 0.23530415 0.096365936 0.04179488 0.03752402 0.21622671 0.11357111 0.07215792 -0.09821072 -0.0059901476 -0.01131564
기 -0.031429984 0.059032205 0.06953112 -0.040094938 0.08467584 -0.22030349 0.03950179 0.24985796 -0.10326332 -0.114836164 -0.03692263 -0.17479116 -0.017747885 0.1146995 -0.016373271 -0.0032405197 -0.040832084 -0.07466655 -0.06278567 -0.27412382 -0.045396253 0.052256513 0.048757356 -0.055787895 -0.06857837 0.08559816 -0.044255447 -0.08215213 -0.12640429 0.07310026 0.10008014 -0.009876517 0.09249319 -0.11070748 -0.055564463 0.19339281 0.0048491415 -0.062442426 -0.02562979 -0.16695698 0.050052885 -0.115855694 -0.11406224 0.019753244 0.1318587 -0.0040687285 -0.0226223 -0.03733823 0.11645727 0.024905387 0.08270653 -0.1184544 0.073944926 0.053529143 -0.0631261 0.12255916 -0.04293194 0.0042846785 -0.061726898 0.040617965 0.080531985 -0.006792978 0.019382307 0.022461869 -0.073689885 0.09827804 0.13336097 0.121964805 -0.14304648 0.17565227 -0.051847313 0.09444228 0.13255437 -0.08514535 0.17457497 0.1288628 -0.0021316211 -0.03739763 -0.10107281 -0.02023779 -0.04715913 0.059084013 -0.175382 0.14367795 -0.09023347 -0.038796533 0.08873859 0.1340865 0.109832935 0.028627804 0.18068856 0.14422265 0.04651831 0.048232265 0.21186936 0.07388744 0.08606855 -0.088700734 0.057452373 -0.067891106
^^ -0.074364096 0.08289031 0.020894676 0.025675561 0.044694483 -0.18038617 0.033262342 0.19697195 -0.07635882 -0.027438609 -0.11936795 -0.2014689 -0.0035468098 0.08543536 0.007592921 0.012499918 -0.061825354 -0.12878707 0.02613735 -0.254056 -0.046498243 0.0877687 0.10936214 -0.0914954 -0.07784104 0.03343582 0.002404588 -0.08072649 -0.0842109 0.02369759 0.11853513 0.02411179 0.12360726 -0.020654421 -0.123454064 0.2037884 -0.043076225 -0.12930074 -0.014616121 -0.12963127 0.07244802 -0.20754421 -0.015181137 -0.023011658 0.052866157 0.001001414 -0.09573964 -0.015619842 0.044825222 0.018595204 0.10349652 -0.094565414 0.10971386 -0.0014800339 -0.059900288 0.11905799 0.04945945 -0.0020696702 -0.15203588 0.05111342 0.10019311 0.07343793 -0.019506766 0.005239033 -0.0449683 0.04399443 0.09174901 0.17681922 -0.17439127 0.1318859 -0.003236207 0.040533505 0.06629665 -0.052474245 0.25611874 0.1389308 -0.009112277 -0.018740015 -0.037621927 0.018455697 -0.08699847 -0.006428118 -0.18417035 0.18932961 -0.055065684 -0.07527759 0.12093864 0.10495797 0.12289444 -0.043972865 0.20693798 0.117680244 0.048670486 0.0010695732 0.15069701 0.09175597 0.059880942 -0.08274026 0.09393185 -0.024386795
입니다 -0.021960568 0.055426333 0.05473807 0.007897622 0.099017724 -0.16705936 -0.007888282 0.31398335 -0.17815426 -0.08593116 -0.11039567 -0.21431564 -0.042200536 0.11828018 0.037164308 -0.054383352 -0.032869533 -0.07922766 0.02178331 -0.21604383 -0.014600504 -0.023722416 0.11501119 -0.0806245 -0.013023669 0.07330111 -0.002581341 -0.07177874 -0.14857785 0.034142166 0.10930622 0.034201164 0.07279171 -0.031793237 -0.055431783 0.1362558 0.06938711 -0.10906039 -0.07523362 -0.118429825 0.0011064279 -0.10244742 -0.11318994 -0.017030587 0.045813102 0.0021100298 -0.033143844 0.011778247 0.10049022 0.0944487 0.06121786 -0.1269551 0.12776084 -0.023997117 -0.014343672 0.086352915 -0.007788221 -0.005672243 -0.037108663 0.029346246 0.061645843 0.031091545 0.03348412 -0.058227785 -0.16889578 0.05010091 0.069052264 0.17622319 -0.1769783 0.2291707 -0.027487557 0.033647772 0.07345499 -0.10674511 0.14609823 0.08975971 0.021953417 0.05704293 -0.07927983 0.011941627 0.003576623 0.018632764 -0.20408984 0.16658854 -0.11085746 -0.05023442 0.095111236 0.07612105 0.11819569 0.0028123176 0.19856192 0.11174073 0.026315762 0.08646526 0.19842832 0.082977235 0.059298877 -0.11840718 0.031261884 -0.06383185
10 -0.11135441 0.029146826 0.01738598 -0.021767974 0.0338706 -0.19932166 0.07594005 0.2822943 -0.08787898 -0.0468041 -0.027843436 -0.14247453 0.0069912807 0.08197389 0.07604405 -0.09215319 0.0087641105 -0.09093661 0.026990136 -0.28140733 0.041082487 0.05297863 0.03263851 -0.012999752 -0.050540954 0.08145616 -0.10906805 -0.08937626 -0.08716548 0.03437435 0.046154313 0.028183071 0.0345961 -0.06030485 -0.01929473 0.1538719 0.043423794 -0.08230485 -0.032372292 -0.1356073 -0.013323831 -0.13417023 -0.1041487 0.0752902 0.06276573 0.037156407 -0.06499556 0.009223311 0.10786983 0.12270717 0.06456734 -0.07311162 0.07622845 0.008178531 -0.06925361 0.11413527 0.04832691 0.050339315 -0.07071958 0.08935038 0.04224483 0.035119995 0.0017528145 -0.056929853 -0.15297525 0.12218333 0.056673978 0.21808319 -0.16674845 0.1664201 -0.078956775 0.114683285 0.13144095 -0.058939304 0.18491372 0.062224314 -0.007830445 0.057229288 -0.15220949 0.04488392 -0.03194864 0.10723982 -0.13098691 0.16479178 -0.048058387 3.2810996e-05 0.027073387 0.09508564 0.12676226 -0.007630982 0.21127443 0.10089858 0.022693206 0.049699318 0.19344808 0.14614809 0.13764884 -0.06767577 0.04348827 -0.09559959
다시 -0.039265037 0.015500258 0.056683317 0.0055162054 0.08037917 -0.17206252 0.07493703 0.27021676 -0.16448696 -0.10069479 -0.087237 -0.14888307 0.0109079275 0.11472152 0.020871954 -0.04917827 -0.025558958 -0.08633766 -0.004407903 -0.25428265 0.028935004 -0.006688586 0.028284226 -0.029766321 -0.0075400975 0.0068486654 -0.031459622 -0.08228111 -0.116326556 0.05041355 0.056489624 0.060216445 0.060622852 -0.11230902 -0.043308448 0.19474146 0.040178396 -0.05139677 -0.050042145 -0.18088573 0.029805753 -0.14615244 -0.06421745 0.06825005 0.13025802 -0.01683534 -0.09115115 -0.004025325 0.11685494 0.04527856 0.07672332 -0.055371013 0.06395189 0.032895017 -0.0800988 0.055854045 -0.023381304 -0.021722026 -0.11822285 0.08826826 0.026330981 0.053835455 0.029713485 -0.030587707 -0.15358925 0.08338121 0.10600773 0.2132889 -0.14659055 0.20159541 -0.056847334 0.11269818 0.09822779 -0.096377954 0.20859076 0.090083204 0.059205063 -0.029058395 -0.09604263 0.02952972 -0.02145367 0.047930446 -0.16112505 0.12544338 -0.054591488 -0.05618026 0.106995426 0.15369388 0.15491913 0.017532373 0.16665138 0.15359488 0.0046994775 0.060192443 0.16192576 0.10139162 0.08682256 -0.075800315 0.070101015 -0.036148265
볼 -0.09963201 0.053940166 0.060849827 -0.025923299 0.071643315 -0.19537458 0.061903697 0.24640441 -0.11226362 -0.050318457 -0.064840205 -0.19435637 -0.02307301 0.09574849 -0.00716178 -0.08763571 0.0038527271 -0.10614693 -0.04773913 -0.27654353 0.028268697 0.07014253 0.02645361 -0.09737215 -0.025797557 0.025514696 -0.06199129 -0.0910767 -0.15343578 0.015526682 0.10583 0.05140555 0.040730566 -0.12829019 -0.09649974 0.17369324 -0.027391827 -0.06263545 -0.013608632 -0.18716718 0.018611938 -0.098250516 -0.04134506 0.03516303 0.078503266 -0.052005574 -0.08882577 -0.026510585 0.115763225 0.05516826 0.10391991 -0.117099114 0.08850175 0.04144651 -0.07658599 0.12656604 -0.028422402 0.026872478 -0.12552156 0.06282371 0.040009998 0.05681259 0.043070517 -0.06302615 -0.12350324 0.06980745 0.056087106 0.17915429 -0.0994647 0.14205275 -0.00040984302 0.087992385 0.06899975 -0.06959731 0.20440367 0.11588662 0.028124435 0.046363123 -0.122003414 -0.025638718 -0.090547994 0.07438881 -0.16665055 0.11166907 -0.09963254 -0.025118316 0.11785773 0.10641809 0.14125335 -0.01372128 0.22893237 0.13826492 -0.0015555758 -0.01697063 0.15595882 0.10857434 0.11056848 -0.038626295 0.056157235 -0.005547673
